function [Y,Xf,Af] = myNeuralNetworkFunction(X,~,~)
%MYNEURALNETWORKFUNCTION neural network simulation function.
%
% Generated by Neural Network Toolbox function genFunction, 28-Nov-2015 02:12:37.
%
% [Y] = myNeuralNetworkFunction(X,~,~) takes these arguments:
%
%   X = 1xTS cell, 1 inputs over TS timsteps
%   Each X{1,ts} = 9xQ matrix, input #1 at timestep ts.
%
% and returns:
%   Y = 1xTS cell of 1 outputs over TS timesteps.
%   Each Y{1,ts} = 13xQ matrix, output #1 at timestep ts.
%
% where Q is number of samples (or series) and TS is the number of timesteps.

%#ok<*RPMT0>

% ===== NEURAL NETWORK CONSTANTS =====

% Input 1
x1_step1_xoffset = [-1.19264928787879;-0.401012159090909;-0.77908237696335;0.245010776923908;0.0760532942179755;0.0952661558459486;-0.968023993239421;-0.925898770779027;-0.925127882973029];
x1_step1_gain = [1.26737396141797;1.40745094721951;1.32702281677225;1.55945352816849;1.10430266860093;1.60637002957062;1.1020349313952;1.09670532833769;1.05274378153379];
x1_step1_ymin = -1;

% Layer 1
b1 = [-2.5842043841674589011;2.2357196455417400749;2.4196577829368983714;-2.7419714540435400352;-2.0994030266191523459;-2.3401445664718316664;2.3796249448525803594;-2.1892657777231501193;-1.8669838286795061855;2.6850036407175617015;2.5265343310363586049;2.0522133921034084736;1.721057269250137578;2.2753509646112619613;2.2690794317653950607;-2.4315358591573135172;-1.88352323279799716;1.7310003989512769973;-2.1779982864495770478;-1.9872704103601486203;-2.1610709550465738715;2.2906680221954900389;2.0208180797166819254;-2.2564087905837846293;2.1206317189896020103;-1.693704318556207733;-1.5307350844771627774;-1.5634193059221674904;1.9195624672454314474;-1.4804110086437540783;1.6692602567502694555;1.8346640984962934162;-1.7362132320735281787;1.7803519101054763318;2.0849771952919855522;-2.0787843656575746287;-1.5261859230969958556;-1.2699074499764599899;0.96140249005584710318;1.6636303672051884206;1.6999098063354303179;0.99174797828097471797;-1.4948940140467958937;-1.8838638547087496189;-1.6595345107936338991;-1.1023206175406157215;0.8231856641476292813;1.0551568999851088648;-1.3922439843499867518;-2.1268568424147034079;1.4786524685554194303;1.328891878743006405;1.1791292106025086373;-0.44251994392598847927;-1.4226916515319236733;0.84436524295206583091;1.0357824337284209371;-1.1428319217859101986;-0.82688520851783842147;-1.5381555485625786339;-1.5271788834623887254;0.76438976465098773527;1.0843880741744955643;-1.2793466148613881206;1.142798106228774202;0.95243503863491574268;0.5034438438509956093;-0.9563489197344842152;1.4123861178196992494;0.86565100078992140986;-0.3943495108376678937;1.1408573882579100545;-0.53325525228288028767;-0.14639310786941478471;-0.84971381472421636527;-0.14414363213546538267;-0.96829461346399570143;-0.25880921830626840707;-0.43460608067908973462;0.70986030266447919246;-1.004186443808776863;0.10162260307615764154;-0.69028917277078782888;-0.38796714787321673334;0.28500393903614140712;0.38857793522035050104;-0.59257005653323435723;-0.35403616762154571651;-0.96645276764288912119;0.41774848286861415714;0.68775250030854073735;0.79084587525787253259;-0.18729442452819392018;-0.62553693660326581405;0.35133761117320494449;0.32055075220287393423;-0.087313120598914981119;-0.43868425498283897257;0.28535029371712078428;-0.072837831085500737149;0.10503184414788514778;0.22064534793364720677;0.95904918712057563024;-0.23709429378475305183;-0.58992174788812767883;0.064299525218434114282;0.59153230537305145909;0.55394230623474571829;-0.42871318236016281444;0.32512150098185782499;-0.05835164490163125689;-0.31412569387537225829;0.036086461769576645697;-0.70498435828440275674;0.71731539687708401054;0.25635351829175079263;0.12136011981087205247;0.52007246002577300903;0.36043850006576200196;0.34390920591122764449;0.27842270458091955554;-0.1579396275612289513;0.6307781171671421605;0.37607428157210365249;-1.0657820937306892173;-0.47050476547254121984;0.52340049281269307446;1.0672895684869179167;-0.57713330750086477838;-1.0193205748760081342;-0.38711674024756054235;1.223219263168831672;0.89099812800329414308;1.4040680147564887914;0.95422460106759032783;-0.32734575703222745791;1.0150989581777491999;1.5943636144879347327;1.3220805708501421893;1.254033389807422294;0.78486103127491146925;0.89591205182649047423;0.94940005222509482596;-0.93973788143567016373;-0.47274491057927181537;-1.1749395796704984463;1.2675782674437208186;1.6519225873208249755;-1.2573228809226084657;0.7428854044517534394;-1.1160145805125643026;-0.7695197810035696584;1.5978896054328146636;-1.8547920283035617128;-0.89333328311267190536;0.90403992712261493914;0.85048027371016576836;-1.1887080497575757132;1.5059031091808716685;1.7966574986456316232;-1.8537439716618058227;0.95832296142882600343;-1.6708819681732813844;-1.7318159271999327142;1.074931724226535934;1.466856990010477757;-1.6876651039981924729;-0.32793260162898729693;-2.2360121371618641994;-1.2291042682675814568;1.3741783756683683126;-1.7298990531326168263;1.4922694840928567572;-1.6715664208209382036;1.5611384520883677673;-1.9909006734519352211;-2.2766461573386682637;-2.2351580936732466931;2.2997902609648517291;1.7879056046756753862;-2.0100626770430811696;-1.7441808551256945403;1.8383603069212972603;2.0023103200456904283;-1.9216599383361934184;-2.3179579815934956422;-2.1476442777713491417;2.9197094977419291162;-1.8120710941772901759;2.20306332045838138;-2.7217257105665746408;-2.1543873958387544931;1.9113928293561570637;-2.1681424840332592652;2.3142339949532009236;-2.860381410117271983;2.5692185947270358426;-2.7766153643034900966;2.3282148397299775588;-2.8563468427174947273];
IW1_1 = [1.0872903948455221457 -0.30673475174374653651 0.02311655568291357335 0.3086916101138710844 -0.018317263410313769367 1.3026946975283921759 -1.2861989886851921128 0.53577846193253375606 1.0440317939218139998;-0.25291453772461874872 0.13989475741520679408 -0.7280548947837628404 0.027347966642017745853 0.72666731047304977675 1.0808922481858362907 1.344307144327111958 1.5981059983153318438 -0.32483985799456893684;-0.4422981352087871354 0.28650302327883819808 -0.8231161442281822449 1.1696788729084497405 2.329928408418784791 0.25081360566332638884 -0.78010405057186404942 -0.20935543139795731449 -1.34032551893756402;1.3405991415283644574 -0.56576172553541725918 0.79379809761951813929 0.52684189767387856751 -0.46836803947577748675 0.89879950304289935037 -0.13882369165642388653 -1.0368721501581465994 -0.0011486942891973305966;-0.047516691015165424261 0.29506977576883369752 1.6054830433162756709 -0.25304468087736653459 -1.6021046220732535481 0.38122185112676360008 -0.57131468495393200602 -1.558065305129906486 -0.62194118080067117837;0.43512280631970273737 -0.45143429996341033483 0.051181695319868436567 -1.4081771423524893638 -1.0818431720611638713 -0.48815303428767842231 -1.1525411559728109268 0.036715639838383329341 1.3299484686245719445;-0.43553384362982150435 -0.41720156105912453715 0.48604654147829995381 -0.25841384293111974157 -1.271540162386280759 -1.2961288814446780826 -0.64132664229625968577 0.57012251932994706394 1.3178032148105216503;1.1446144170604997115 1.1881664198870653948 -0.068281622158539029277 0.20151912184335485367 0.53569604982105289981 1.2124252358884919367 1.4069410090316443185 -0.51073049766082223577 -0.510820421196340968;0.3697544054103747424 1.1052349891387824865 -0.94988522590253654521 0.23214125973368573974 0.47788911501121456027 1.1762276665426194544 -1.0474862980153547554 -1.1019490790914496792 -1.5185463085977242148;-0.8070661202547821933 0.32616243594834193331 -0.19241867305428428381 -1.284145424038879213 -0.9831507292730369274 0.20237416831717938703 0.65901729110392570643 0.73654729922723793933 -0.36700431470002942147;-1.1392372876951459837 -0.46262753552756341602 -1.1469891350232386262 -0.73535337249283849737 0.53314838984637691333 -0.64766552616552031107 -0.91862741857046781302 -0.80192016801357990374 -0.094988950930575050124;-0.34814575267686564963 -0.33044157150654196453 1.0538034003534135774 -1.1227351887769865257 -0.47295687190465429683 -0.24145139920957761626 -1.2911814103289183109 1.1664408976176938726 1.2750192279710448329;-0.95762432327220159411 1.1381263600468953801 -0.92967622199369814862 1.6340254249352699212 1.2262548754289450681 0.029425828799355631393 1.0839773376308574626 -0.50518358276545138885 -0.43601279730338621254;-1.1370267147418438025 0.54644684678159105573 -1.1293579850322186253 1.1561746516281541375 -0.74504201279030801697 0.098916276367625857735 0.095780889946981251359 0.97616833342991382594 -1.2722484093014738704;-0.62965700643339117537 0.74084138613030003917 0.81242349206241870618 1.4918803353500222908 0.88576383258391333531 1.0996705570152427445 -0.41881315239648286841 -1.4394052786381801301 -0.029553882253385961587;0.3845293576719628903 1.1372575848278179134 0.88832652100539943874 -1.1425775795413652958 -0.023102291896165534635 1.0269577098802236126 0.80542197072782095724 -0.2749209871105587899 -0.11784602174223289539;0.36369362778196895336 -0.97774429903124293606 0.87597784459670324786 0.11311675987601990667 -1.0549446366298422806 0.42146849278004616668 1.57256416366704177 1.1592370466467121215 -0.87558319149121055514;-0.24121942652520869665 -0.15986358107771814208 1.3200072630258314899 0.65214736570356790502 1.4338814534512864807 -1.1942362104905712705 0.28156582936017826579 -0.17803238390158290794 -1.6389349708281817364;-0.3037623729918423332 -0.69749292577351984512 1.6623601344256611068 -0.22012528845656367804 -1.236291333419992533 0.4701832690983350771 -0.1647502899838635404 0.78398856283441242798 1.521477068040747227;0.16016784417195312207 -1.1132390794697855085 -1.3955503000046176609 0.88116500737397074339 -0.040117637774409485585 0.49605306116858266519 0.6626713619720875359 -0.47846070261854484196 -1.1405557511401400728;0.9399963247596098137 -1.3961446861241180173 -0.013622367626476594368 0.83772177688370941251 -1.2117763051153820353 -0.92490032584343828681 0.21946986770667947786 0.081493543505456997322 0.59633915076951338197;-0.30864474911001887891 -0.50004558996382453273 1.2024564926998397851 -1.0859912855652715802 0.64305969235528703809 -0.7104175318988259491 -0.32940754716153114456 0.17758236386854234223 -1.1902639766997138437;-0.74816940329931624909 1.6149571244102036705 0.74155183885538089594 0.045508006747947735149 0.85722360456405577445 1.8720306566326561093 -0.066177128388579795071 -0.84598765875830916894 -2.0638150941974360286;1.3590351309863022422 -0.16645643571524113002 -1.1442635748139733387 1.1496170757301236165 -0.90382494332507801182 -1.3789839477585439376 -0.81755292877384588834 -0.4797435588473079604 0.53779121931873474782;-0.16159147562165407375 1.2862830284523880664 -0.78953861341518294381 1.2613110945129673013 -0.9445751065873313479 -0.82991439567572289349 -0.5355034570808211436 -0.13053379715771376568 -0.48328909288461108229;1.4697062952206727537 -0.38111082200364448935 -0.79095494537426502824 0.49510814397703856171 1.338851177485241406 0.84876777239352141358 -0.89020305128378884874 -0.21668953239410326805 -0.34160610533450830317;-0.039904847736002009573 1.8073606970268900618 -1.0335660233981232015 -1.4754804506788599117 0.66087729310262088855 0.94080999308618906696 -0.24392264302381982954 0.81092531158059322216 -0.029889514808523330591;1.3947187487598600164 -1.1266718377670885687 0.45896846405459934548 0.5505248284544108639 -0.35374065908105134515 -0.67788020433826523536 -0.21951126263448872411 -1.6391142423821769558 1.6323969448676558525;-0.020283613633849107566 0.14167003719762691349 -1.5321632910603466549 -0.36238499252572353715 0.11279019236725933151 -0.85579963109096568452 -0.43003836924564153854 1.2017815919038037364 -0.73442980710755345619;1.4044570158248534941 0.27743997796467628758 1.6487807235435176789 0.097628181658074450477 -0.15548819954850387481 1.0385344731191954448 0.58010779369474818612 -0.091297772177089411838 -1.1696846414093196032;-1.0373820360348977587 -0.24504443691043351072 0.15598314997894655032 0.41100939437993766479 1.8713795217262620962 -0.5277556905971572121 -0.21669938894871043633 0.313575175423509378 1.435555754524379779;-0.27706130202889905911 -0.22468339140197171599 -0.84637241436033439079 0.01572723462195085159 0.75954440892800001439 0.21180146059726345786 1.260756051075398565 -0.26476341660853996984 2.1980525643879507136;0.88649333006276687108 -1.5399482961985058171 -1.0827640148692936339 -0.9269338287994525194 0.23999433345433290876 0.71241557329080984484 0.3688974398208522687 0.29564777996342866961 0.48146764475790310156;-0.20640834883300654412 0.52425330458968089076 -0.63687758613290401666 -0.96919931224010114068 1.3124406879382863877 -1.1497823415107064626 -0.18037516388563437642 0.76793603643273011805 1.0296899828761227891;-1.1762566264375902136 0.27820749044466630551 0.55562288978743179513 0.3678667134372688996 -1.0110178129414963966 -0.48052339544664507409 1.1287784268348619587 0.3690994449265552757 0.83440522100192759947;0.44824770102624472701 -0.9253216748514568879 0.8775227215559948668 0.33321124439671773176 1.0233002957717864945 -0.18877530308318218877 -0.42975012803652218318 -0.6504597848740039101 -0.089522189420083192468;1.059200495127519126 -0.20479619559555939379 0.82133242541790885127 -0.29993186057314547011 1.5785137390327677043 0.29538813320687129504 1.0415842085425606189 -1.0274494041149382362 0.7379131154715237173;0.22811714228638729773 -0.88976330554713356502 -0.043940289766231550861 -0.8449595213153378026 -1.7086015274796579888 0.8692257482849778949 0.96378499391651006878 1.3953337253650373029 -0.70532263478452394967;-0.59438189528315421573 -0.96477305007069935616 1.2259632906446729095 -0.92038726751267085913 1.1404553098182372839 -1.0076775866064739962 -0.84716521405397893218 0.84575604555318351085 -0.19717672726265556005;-1.2867528831764885044 -0.18832481299030134902 0.082654971473470742471 -1.4758606401306997302 -1.195310761683491485 -0.41677328964499821273 -0.19065066194945939904 0.32534393433259239936 -0.80780369057307754854;-0.45596736126969567016 -0.84438734592313058336 -0.37230364331520837684 1.0330735445438474773 -0.5227286918448856845 1.4326143798234647342 -1.088039174624965133 0.93734824271611327795 -0.94763753458647059791;-0.15553607987217948905 -1.0085466964099254472 -1.0658975920510067592 0.083196515038175961054 -0.46953868955670136076 -0.14962498776193788874 -0.25429495818832403842 -1.8171739882581585679 1.8115169721702499839;1.4845677893155126981 -0.38367749313041688008 -1.3095081464694195983 0.68323211066145494996 0.47781664714970029095 -0.15658973867032657812 1.1859877136049419288 0.18206144318053246733 0.44041807162308949097;0.38390645481270568862 -0.44838464676347195015 -1.4339467771999376833 -1.2686139407036738369 0.5877206927452646168 -0.54339422802591574868 0.33374524669101029994 1.075071398251664867 -1.1665330965135591867;-0.003346721590678386829 -1.3061933761696558065 0.4136580622980786659 -1.1865966521238813236 0.85637199689291221283 -0.89931891077557968295 0.37428399471505119367 0.058409234722013134156 0.3910217155022555624;0.47775125590860673119 0.96001058892726987004 -1.1786878101794542317 -0.64060050102455290411 1.5042722108793848967 1.0554464121389739439 0.042016911153092757758 -0.37578426338886961044 0.30782432452679292512;0.12831285752630169905 1.8428026444889868962 0.067944593077414572324 -0.87990218522731278306 -1.2801330312487044782 1.7638106584567909696 0.91273854677949994851 0.040880855449440187122 0.73701256175522966707;-0.81838882138717783388 -1.059104610152597381 0.32912284300757216338 0.46100906660332080511 0.97187207494869454205 -0.24689537757297008724 1.0939696655734956199 -0.92955434539058279242 1.3231747793771078126;1.2587165320840256744 0.31788180807279386997 -0.90010716854833694445 0.43923134232091709528 0.73118470529300050309 -1.3564523268119046406 -1.7084855918766215233 -0.92810155624642043382 -0.69749737548209889137;0.44119550124547762815 -0.47789293572426888579 0.58567515882584963993 -0.8411454648446606841 -0.73347063490446806622 -0.55942420798864445075 0.72195808045001264031 0.6963279923547093242 -0.55005285273028436954;-0.88564139065279412488 -0.63046023973624487624 0.053302115971025756935 0.93568558023040027116 0.68257490911874751927 -1.2578789827481298147 0.62257021948646851239 0.21465559509246848191 -1.2590811180741996456;-0.266868470586945572 1.2507891472247636422 0.060882070613927259661 -1.0713998492099612303 -1.5979644230452378917 -0.14940016200524786072 1.2878618394170948669 0.068853503230831392123 -0.47661504260044890158;-0.095394266878246702923 -0.96429917170625745193 -1.4749003140980909698 0.090221554023635949782 -0.56067858236991796606 -1.1937588935846532578 0.8596941326545791684 1.7022191070201859731 -1.0277231858068915926;-0.13627572549042624162 -1.3597056387542656442 -0.094373452254594758504 0.58596189863194447778 0.88412726444082434529 -1.3245513395682519953 1.1737392872405447708 1.2857731497831625944 -0.56567586390052138068;-0.090821019482710679815 0.56447962763729275792 -1.1182412195905204744 0.22667547801515372519 0.67479352411237136788 1.5083187899692556133 0.61092786641704699413 -0.2996616965740353522 1.0216587628152653533;-0.97519900070247156343 -0.13572570485033394472 0.94776427628311699092 0.47482391364163972769 -1.6074188929681532123 -0.44881240874290084797 0.4901877105248708677 -0.41247285707471065264 1.5619623019936874631;-0.10725141738310174644 -1.144947032574807233 0.6534090666589484897 -1.1066790335351204266 -0.72592057917253882682 -0.75468844032119086762 1.6698787871401774563 0.17036130223378934123 -0.49984135165537235679;0.85703689502737900874 -0.10108664313146721592 -1.0472146729448781333 0.86237338561045551177 -0.87793770305023466349 0.59331445144557171112 0.075831695226309073221 1.5594610736711360666 0.19550599736620077884;0.26709228805293006026 0.69599050224017267041 -1.4164693088599122905 -0.36172358563178919066 -1.24405074415186645 2.0216232822834725447 -0.74681117194577817386 -0.54911257682977610006 0.27023067207961692926;0.32306918264684830744 -0.7601839104286509663 0.3085839207049852484 0.50779348662149970117 -1.0159914259761486655 -0.14342632654505865775 1.06919177630975204 0.70433365645749801409 0.9889952847191433305;1.0683672469955332041 -0.44443468635385452448 -0.78565967279880954965 0.4737768211525440476 0.53426999184883161575 0.22856953719937117553 1.5977704938778143351 -0.21340893483112194362 0.93111263242225017489;0.08687460409575176179 -0.17488598494811810613 -0.14729296664530452943 0.29959291042113139758 -0.97801750612180504696 2.2675999792748013917 0.56290094121206823985 -0.19870283543560138262 -1.4062390571922103177;-0.90886759395022409525 -0.49454531997636336227 0.25474565945436267178 -0.051201746264986629231 0.96934177871779969582 -1.9094991331890889263 -0.41697958101372828432 -0.31274866118876260002 -0.14747490933525972401;1.0823503646414136536 -1.0841049953010242213 -0.30154863402324538768 0.78225615079009780395 -0.86318511365837657934 0.93770517524987839764 0.40821961897979808231 -0.71266872450421481222 -1.3635115785362525997;-0.25314214800522721882 0.016359997730038291358 0.45420430130374478406 -1.5944495996338525767 -0.27085352369759674307 -0.76155714048544731476 -0.73411696682150617832 -0.99351153577499462521 -0.84967220774702867381;-1.2315068733033964765 -0.64228624792344068961 0.28489790510892426534 -1.2139512559907095213 -0.72479931080168835678 1.3223813844744574109 -0.51134923008735944094 -0.39827925505214667456 0.94502374867597482844;-1.5639722328406602259 -0.18922149258600151622 0.29811485448047536639 -0.30361853556584983416 1.872782120400200867 0.22913243345013140084 1.8879724286347376871 0.27738843737324364591 1.0375805505358248748;0.97180833953004486236 0.80299509810887403916 1.1623546562585116426 -0.43386732181545539788 0.59240350600481683774 1.2078623472219895962 0.85209293124789542428 0.73306757069389105741 0.24246009509475274779;-1.0595838715759080539 -0.67990431470527035174 -0.43123888133862042782 0.09358287698284567524 2.2872378365509691278 -2.0624283254668474008 -0.11740972776535547883 0.41857509683718191473 -0.77768408573245229043;0.22347779307968398954 0.87828950610495237772 0.84237877033402031035 -1.3330622351633307776 -0.61295068194217483537 -0.19885731202849613042 -0.79148303326543267833 -0.86510079156438179915 0.55893161754538600583;1.0693873748238786892 2.1007305006887500021 1.2850491643954711218 0.62623573716789315835 -0.94187318875886749669 -0.49903076605261842413 0.010097264979107673302 -0.11690137132544932419 -0.44555935589139455955;-0.7265409581258740479 1.1215496728901863666 -0.13799049970973326085 -1.1963024579773862133 0.91203639759029919709 -0.71155318824874957961 1.2588305658031566647 -0.81079957748187325706 -1.1598008831211370495;0.89106372882404139002 -0.99450086871599863159 -0.22769762617463809584 0.13349756831513492905 1.2504774286128736982 0.035724373895039150673 -1.258991886254907433 0.56802083450297635725 0.32446654903906813061;-0.11624224798772028744 -0.66529463595127402709 0.37533743253805379458 1.5539619563611841713 0.47996479058230417936 -0.74877139166740758203 -0.56731290029019865173 -0.13030869621164264949 2.1834469448193929431;0.87603148927634966192 -1.6317408520751666146 0.67922488632184752078 -1.2391905448171061099 1.0680216887870246367 -0.018673603037913974467 0.69820407340673740215 -0.50715662381942250292 0.49815928252319863212;1.5518464273783578733 -1.1252382375315577168 -0.095722564239919094575 1.8275182629182218363 -0.31727507948927552439 -1.1929169369637979692 -0.68767117817895118126 0.12634451472115201809 -0.032542984776369146549;0.61684776964610732453 1.1775908041336449195 -1.3265684150107310835 -0.44552059545897354509 0.66487170256916683364 -0.2612132036248241973 0.6460776284840415995 -0.093766779183067514025 -1.1753757610971220515;0.46962457472406454739 0.41330546392675293621 0.74311534120426825378 0.77303600986525222716 1.3713164462904294805 0.51211824363187119502 0.57113059970283797107 0.78843031882996283954 1.4460939040904667863;0.83313881562607150499 -1.8564717644626274051 0.62813008348792431779 -1.2241700125490377893 -0.26099339455547115874 -0.4380022323379322291 -0.28808452207273882451 -0.83135391266425706647 1.2834369673112959731;-0.66522026698487024543 1.5748833119412721793 -1.5060274741870207649 0.0069766914331910023089 0.50814003550373965101 1.4069107613675919666 0.88179213534939926422 -0.07420763471135390088 0.35715843307903999415;0.84311357021657229449 -1.4433683524711056201 0.27017042117246270472 0.070107933108922840248 -0.72088976244951075145 1.0613961064375072585 -1.0784143448232337281 0.70823810226235939247 0.16952209099018378247;-0.9921664292647257577 2.0756719468699369457 -1.512965234917158952 0.58571621341166835162 -0.18061633953682515452 0.031168370852994398135 1.3135624563331786963 -0.86967418269295815314 -0.70088427261511487831;0.85438537297602601406 -0.38291639923938841639 -0.41256109473392987841 -0.8191801347411571399 1.0821111453081075915 1.3397170532652606934 0.92768597228230553764 0.40255558439621852429 0.30383004676283253964;-0.33105218492395432905 1.5776991412515677382 -1.1052054504738566543 -1.4100004765242706295 -0.39582593855530318061 1.0670727654478255886 0.38150008326061124464 1.2982562737843130751 -0.95675104411541900262;-1.0411296060376091788 -0.61516078238769211772 -1.1070835262618301531 1.0384385930846289359 0.65727252306368721957 -1.052318504474613059 -0.90063236411717217944 0.46009625767403633523 -0.41208494940147305519;0.70421276061554760606 0.110922989437197278 -0.78100760253582057757 -0.2516006095797552744 -1.4456442652510470559 -2.2382950896789739481 0.096402011416153093881 -0.25211470461217944106 -0.13338752351246188632;0.17888596631103154122 -1.3130717443159736213 0.30486826343528883321 -0.96684901405568213217 -0.88769757115906056111 0.99628633762422103004 -0.44180744392838777745 0.083786195760740284078 -1.3922758405653457014;0.91989649600479339586 -1.073693504795149023 0.60711806802010126471 0.01123583965722405216 -0.047791810593768226101 -0.13783600562932366018 -1.5128997858958292966 -1.3086521757610165562 -1.071001072553099398;0.73430173121081032672 -0.101359341698135208 -1.502164963376220852 1.7540472317570512395 0.12631882781128256354 -1.3395142150679761883 -1.7997926510433384095 0.94058784952497798137 -0.10127438320506891578;1.5969456378457789203 -0.59083978531130354472 -0.23287550557737538015 -1.3766310390646812056 -0.06527214888767031431 0.82383589848251537191 -1.0505427959105526625 0.59006116154598298174 0.11674630397131105508;-1.1334285303318170079 1.4627057274558397104 1.6493998646613166059 -0.7525320123345723422 0.74562737556605751532 1.2278876112151297928 -0.40843889586976034334 0.30788086129621416998 -0.81523330362266899218;0.5463370788609833717 -0.6875560209525768407 1.6496189527260252117 1.5616478573366194826 -1.1468354556855673287 -0.67826439384226844265 1.2335977836487854731 -0.55389966240870569525 -0.016787723094795273249;0.53807364962293102728 1.0442999912870039037 0.32395404197558064219 -0.17798925057325612475 0.59745774114111938058 -1.7326682404931441628 1.4023732501616739121 0.72045230539216942311 -0.58414308169259188119;0.88621349108556268792 -0.39078510577603176035 -1.0152006325350086957 0.84499817258623055594 0.41147855794380133743 0.84542265766154334194 -0.91638782396762352711 0.91861670269150597079 0.18861851920018490869;0.90364014277368120975 -1.1901261337427089249 0.81329349275981133172 -0.95390397615034605572 -0.99745744606454589398 0.050485908739942728096 0.51718257624086083624 0.69577568311183524141 -1.882726069704398375;0.031303422868692622194 1.5072964620534077262 0.94335843088168769288 0.96079204523466088528 -0.72149513545455179475 1.1583568022560111199 -0.50801083679931080539 0.33191398082503942302 -1.8470366545823260207;0.87183491830957760005 1.0008406472668540665 -1.2743701493192360896 -0.70893814984364944554 0.47931884664962182141 -0.35085675704883140247 0.9939914278064876374 -0.51296002862230971608 0.0027852719396206700869;-0.67144081905013675016 0.047327033215902328256 -0.83488423227869745791 1.5299550264099153196 -1.0688987160165204227 0.94470262953331785027 -0.75041900839509567689 -0.28161863762827754609 -0.57319578741850896186;-0.12946462953352605441 -0.99683035112645879128 -1.5732228397994871827 -0.80643299444788163477 -0.028069072759225145025 -0.013121650121200595027 1.2530695532687690097 -0.40057224558126036662 -0.6785613722820775795;-0.95952691888340602144 -0.30525053440065180732 -1.4909022229029540441 1.5866728116841131158 -0.31953181261162472149 -0.93331573813272405982 -0.22197666545139696503 -0.92585236864123598988 -0.13093915744794923373;0.070129821778241924202 0.156564498376325828 -1.1843163230613300563 0.29119784797845876811 -0.77451757665144549403 0.46622304224980593013 1.1871976893042808232 0.71009326481837664602 1.2708718901916775668;1.1728724951623519246 -0.33934429327337328752 -0.48870678184841659375 0.40043759529916550521 0.54285431280324780712 1.0624483146931031907 0.93799671360229097683 1.6893432577800140404 -0.33543840018817039361;0.27318108555921344349 0.71918387031449682034 -0.28810641702668199349 -1.502189390674608882 -0.65957759797483606068 0.53253048790687296243 -1.2443034939658943472 -0.74698971523115176296 -0.30167071620634872131;-0.2412538951280456534 0.6351497134261817612 -0.9655634046327955522 -0.93133209493318669381 1.6849472412148067679 0.69145604458755860477 -0.77585110858781858312 0.52627580540227170136 -0.42665094793573055121;-0.9259595775185909261 0.34716665238027399898 0.56447900244075266407 0.34940548813622340774 -1.5053492074389542843 -0.12977853869300853829 -0.49409153808884898051 -0.89174637364136954965 1.3521096646894832372;-0.87022940743633425686 -0.62533922019716503549 -0.54808954014029476198 -0.24638343516832814095 1.4857437723605337876 -0.9552126593640095642 -1.2374071312479442142 -0.77610417892263106054 -0.76468307875541963181;0.24491191063571177144 -0.91791524721343853432 -1.7292302149020035706 -0.38992624899203359723 0.044088152976328509602 -0.64597594361701171639 0.81060984988875683932 -0.64253479367917809562 -1.3217994016066791918;0.64254277168084639182 0.22086508648959690682 0.47595653606855153894 -1.1739871671182942059 0.55575395074991851274 -1.2426809221948367234 -1.512551128336342865 -0.49241397022699023855 -0.12417645756846684701;-0.45256283052740980954 -0.70078801467705242878 0.98743975779457360265 -1.2272254205527264315 -0.40983940927386813824 0.98403737277339309308 -0.22515694204725322791 -0.84671756307709800105 -0.69598975703705645568;0.70732044196382803936 -0.83777873442036920881 -0.51882379345417972694 1.5095044252867657608 0.8449932406586001532 -0.53337669278715238441 1.3959811434679012532 -0.66567582501942768047 0.99051956206820757078;-0.13219109406436241327 0.60519070915456030235 -1.0219089634687308354 -0.81475074059084640066 -1.2312223662054371243 -1.9571791464301653285 -0.014220468756444382824 -0.11283819295749455969 -0.04190659853958371428;1.3994349993997381443 -0.52917409525268443993 0.92608109110256642271 1.4552599604304032876 -1.3994770944202574725 -0.98482849730326116333 0.4922961856145652848 -0.16789310797457576707 -0.14917356741762038963;1.0495071664195918526 -1.7812453418299194485 -0.15106559203997654839 -0.45191705187898267848 -0.25004211300378187399 1.1157147685460191422 -0.57697501062766998192 -0.28307147030394663734 -1.334897082559233894;-0.69952076316910338782 -0.41901879259251861853 -0.73591755845008488546 0.84213886624773837131 -1.1642710203827357773 0.78738579014798015798 1.8712078991403278128 -0.41897381554990420494 0.66029167311759495718;0.64412065933787754357 0.43220196179425396377 0.25047646755996116896 -1.7647369696175883025 0.65119235627379923326 0.61347837087979695259 -1.4298697913747338006 0.14863990671114987729 0.39537396223356152669;0.83172523076831572642 -0.15799815687457427482 0.93339063756437123942 -0.8196188089240152852 -0.78018181539956166226 0.90420554988879553449 0.49233732190840423515 1.4058543812290034136 0.72579675282320665897;0.035784574006170286053 -0.41876737088404769604 0.1534918805652775442 -1.0818184782405284583 0.91945984220194121317 1.9289515954947453746 0.26118448837276825314 0.094934064410342008933 1.15355090468821464;0.66516468495247482728 2.0221142392494546591 -0.86669719762714092504 -0.62002208332282227055 1.5817826618762251822 0.056423898851873224847 0.93060327138328768903 0.52288630496325783081 -0.73734168338823735667;-0.13335526703582609165 -0.71184550491786946491 -1.1672510386113128522 1.2941141108856362152 1.5795370879871661884 0.74895808824532195125 0.77627151549282480403 -0.24988870084552672335 0.049202397887899283757;-0.7303233647264447681 -1.0235689680316493178 0.25003296759888860024 0.34244389287881071837 1.6461396679680333488 0.60569517278902440527 0.11877536058999040025 -1.1019265618032572096 -1.1732247965599058581;0.66560502106093510921 -1.1613856648436120533 -0.12822138748024752841 0.38716522511226925118 1.7690448690573254975 0.23263571232188831606 -0.50666304831408071063 0.86490383222159550325 1.3439370292460277589;1.3316939571009167587 0.3101677126688901498 -1.2712784482938532804 1.2534029476074319831 0.93702387787055196888 0.0057264103841150838445 -0.52140794855341687786 1.614963425847798284 -0.66810306874608849093;0.84729946571096037555 -0.2301958401311137159 -1.7287407785561048623 -0.5066569868282092548 -0.65979048232103987282 0.40823902922820254346 -1.1722780049171239725 0.69134000861162758778 -0.33303753333000390979;0.53792143924758284435 1.1852600773372456988 -1.1716244063457403879 0.83251201200223023946 -1.1565482806152698192 0.43056825100439727327 -0.68189163182811551867 -0.74897662307212820032 1.5863480850739106742;-0.20060547238099529777 1.0974884985603301502 0.014732123493943611453 1.4104373348191658888 -0.76988179008337120912 -0.24708362303137679228 -0.81747235979752486124 -0.2311566187433250763 0.29263080295814086762;-1.2775987779307598213 -0.025822932997559024798 -1.1754232773428401337 -0.52101984782883570269 -1.2643415340180235162 -0.89115310575160688877 -0.84549433205773782962 -1.6502659506573293946 0.52602305309027674873;0.36779013528212511908 0.67370183512273529303 -1.3593461455832163143 -0.089721002421617512823 -0.77428745699130996361 0.70028942135281335712 1.3099480427373879632 -0.57678884919923423258 -1.4257493763459747615;0.32176329732789116234 1.3666638271223967571 0.79210947951028731762 -1.0438398015379679595 -0.5406189035251417474 -0.40773049985371556669 -0.73099518563351395528 0.3598081392328233985 0.97974291073716324174;-0.12247482790555538901 1.4424619014579469489 -0.21585346636858568359 -1.1759463627401434138 -1.6582800851703207723 -0.73563744733251312802 0.13128336826421949102 0.53100971548834008384 0.39550799511377682238;-0.18914008565871789913 0.14880377667053887314 -0.2482983722131013038 -1.7931692639440530712 0.25344025035522871336 0.15368070535436045843 1.2250436826431292392 1.5344827224762880302 0.4165580647633510547;-0.30738545968700881073 1.0188260632846528608 -1.0872782526131548053 -0.27302750322958024842 -0.55425148035143467773 -1.4668884302700340161 0.93923175056452079534 1.0173237641782193474 1.0034380787091317089;0.37951880229585388538 -0.22120772066290761426 -1.0334175006139967312 -1.2269659852046190807 -0.45587800111723364438 -0.095276610917644305454 -1.0873834218603621871 0.9973085896963217456 0.63284301638677431523;0.73480141675299570636 -0.54759848522976040108 -1.3278125740253488019 -0.029632004976265780005 -0.99439130971539202442 1.0553983190182576468 0.17039062739547064518 -0.75371178070577216079 0.95817247241004610547;1.1825132742181374557 1.6141826426244150205 0.32262170790870886572 0.44955459580013379384 -0.3572595897660647557 0.54827497165675154189 0.5232642648082896919 -0.028857658306985535523 -0.25804601168449242676;-0.37670644212486553704 -0.43855575651206157861 1.3398721370834794087 -0.19400451358890249964 -1.4624110756594363991 -0.14611116840943003115 -0.35289699876154317915 1.3524566991161905971 -0.90399897716743149445;-0.86090326240325676377 0.15237005231428457641 -0.3815458541342623966 -1.5182788302354119914 -0.017633765343055066155 0.8226334893534712478 -1.2239190882557358098 -1.2854455681720702298 1.0422990217432714921;0.86763082972895577694 -0.07844526399987898635 -0.17650648183443876094 -0.43480758055678014884 -0.57496519459301853594 -0.24765384731870851431 0.13629651787304852828 -1.7247781564613020588 1.189515275533873595;0.51693735276835228731 0.6905193719804794128 1.0122466910382204031 0.11179519510613818156 0.064107210151158278144 -1.8160655096577933421 -0.40598080205711511992 -0.27511972034931925224 -0.57234820640867745123;0.27745191368937521803 0.43794654438090629966 -1.4039226671625590903 -1.1539525032466928511 -0.46635700576397370876 1.189748273154028535 0.86200938274034355491 0.29868862063585216449 -0.14438900113038594109;0.76910750555577733767 -1.1831816224519169367 0.018722263506242883824 -1.3034468944820849501 1.3059066993239136778 -0.26470333188360756216 -0.81107289196229814809 -0.62489797323597251477 1.22669875637845327;0.99594907576380187209 0.51094431773915893746 -0.53600608420841211466 -1.4119913329208970687 0.049946204856152975893 -0.5167204939972055433 -0.74050034196454816993 -1.5479329347894619229 0.23856527329815674365;1.1327919473948322437 -1.2181914730228879939 -0.070084613265620890332 -0.0059706635253360352752 -0.96124328135848069454 -1.3171847470403892366 -0.48732561623212256041 -0.72903524645346495792 0.9264244781764686687;0.029088650400979177563 0.26747930589827945136 0.31508525283619737145 -1.0470593081946799607 1.1905643766494327096 -1.2838055382781270453 -0.059858060296056274374 -0.054733327400019043951 1.6696886179245549187;-1.2276136306554057409 0.30393585228923875041 -0.054834600832645220836 -0.29509638059401810395 0.22005157110934112086 -0.36831286401263724217 1.0329969864133081714 -0.93200693831109171494 -2.0013587610662413319;-1.2655352460237554446 -0.80591932702065849359 0.048680357442003122093 0.12911127313873993483 -1.7773947647933239224 -0.17511104012317052492 0.59942046827733264092 -0.56253760708940403479 -1.4353536737012242419;-0.40384259955015927579 -0.38936103261391630248 -2.4708397179677055178 -0.028441359576316160851 1.5232793349353612733 0.44116521060343172334 -0.2251017030990083434 -0.36913032803495787748 -0.66642992072074103138;0.47905384873275058677 1.5195503025140673081 -0.28589706931918712485 -1.2026328558506509392 1.0278183538648357764 -0.62350439417987113533 -0.83012055148905683488 0.24705163693045159579 -0.011711761136628147384;1.0731415512977111604 0.44885448075077061247 -0.91728819411866424627 1.1371571614909459225 -0.78077167518354451126 0.34523274025624989259 -0.70285417468605160263 -0.62049969003186178362 -0.88100710087765876644;-0.079114014678206126541 -0.28170365780750178386 1.6438904397241562716 0.32190588280941945243 -1.2749611991565885649 1.0755354390490046157 -0.52840056213978392474 -1.5855723045355445411 0.31848118990313817323;1.0769041634237619398 -1.719407611497564714 0.7098477926465799337 0.61968394997912157329 0.28166194494999913234 -1.0615428258775196912 0.60705409283638700479 0.050700350115224918079 -1.0240263400509281855;-1.5418915301539268814 1.3376926706763663244 -0.68590478338405358461 0.33475883059187988566 -1.0572783876687157356 0.27211124416057480557 0.77022971872750178868 -1.0675119086564175408 -0.79141944507185224555;-0.52347682729033684357 -0.096275220591906934819 0.24796428620690708078 0.94807094091495813792 0.91291881791839679661 0.12939034977798638537 -1.5653736480488165128 -1.4494310787882600522 -0.92177410162465478471;0.26916496667092337791 1.2259791198478839913 -2.0710763998858432444 0.30740010900773467872 -0.85794603236141364633 0.99470913886470446741 0.16021564524675058205 0.13226068860641185254 -0.058932126391744561744;-0.68656574275383641659 -0.9744698629788159927 0.70007770035867922243 0.90045605084276625352 -0.41307376694431241493 -0.36020107038307530578 0.93725402379290501109 -0.84664946025722698231 0.5159065961652273824;-0.67941287140038320036 1.1699852761110760557 -0.14423809967817816102 -0.8001454599000548118 -1.3232669631019806644 -0.66267493390855702895 1.3784001717535414588 -1.2638412876218083625 -0.14879159972156486003;0.73662223078307331736 0.026874909175706545444 -0.62437288235556220872 0.24943408197330976805 -1.0995154719116098097 0.5223090631909136361 -0.47772143046924092635 1.7602930918824044593 1.868262713554461385;0.36719839295949119329 0.64256959520535839037 1.1201572700759119261 0.92994638214719382852 -0.4866641203246050984 -0.32938205303011530711 1.0991664948178048178 0.90789881100657465751 1.6355135791083215135;-0.19901465707453908083 0.45951089428085351019 -0.75983248394064384357 -2.0652602435702198669 0.027072114741033322799 -0.42644542726001322119 0.58152232401805981077 -1.7109978258356168812 0.099560586975068976479;0.43267752223849209603 -0.03737190361714000375 0.83171692911599581777 -0.93796501597181025645 -0.43521568047796471701 -1.201313766649201753 1.2630554590073914678 0.63448128386305180371 0.53730145996072131709;0.3656053618824985918 -0.8769464702693853253 0.82140007303971040997 0.043908147099918352907 0.87412909862538235028 -1.0853182166888621918 0.34172514436355466705 -0.88475772229319316065 1.3823701180005134592;-0.21358631873433853166 0.40371498648926940067 -0.71211233145556807056 -0.92572293396163662926 0.94526379283483730198 -0.58628343980821673309 -0.59844728894233178984 -1.4376306711463513466 -0.81140640174883971181;-0.2448412126638937758 0.13390878560994848301 0.65669749188015669183 -1.2181259219045410536 -0.36957721135608523344 1.3575913384673388151 0.29974456772148277972 2.0016029250788602845 0.71401225862504125175;-0.79174306647387449054 1.2241719442525240691 -1.1676624677861142665 -0.32509478799603724886 0.045616462279495340049 0.96951989973050700655 -0.6171602733621627257 -0.91441658729482366841 1.5697848966918901414;-0.92977773676765484989 -0.44420513545336903771 -1.1305768599243082306 0.035154303291670116471 0.70074143365648433601 1.1853995602924760622 -0.89028795670248117577 0.5346092646539076787 1.0755610965413779923;0.931334936105142841 -0.55177066418348985621 -1.6452593168712343896 0.043287735816093887709 0.79501412762967416104 -1.0241640748202125444 1.1700528955625217886 -0.70488153002111064716 0.12884336391139933342;0.40028051684079002381 0.61367902074968805337 -0.36881845756577769091 1.8927114918100298446 -0.75947536709681573441 -0.52548437009589821223 1.3566584426301173671 -0.20193028154726441747 -0.5454439719540227216;-1.5268214721391968336 0.88067813962878704892 -0.58213746751407957625 -1.024595757174318722 0.16707942067803949193 0.58030092553036660696 1.3158556628478714767 -0.81081340322408979038 -0.2863029167994311508;-0.93235806510491703314 -0.46037200878784140246 0.66591658540078779716 -1.6943021851701649538 1.0646010918259489753 -0.78076600376961979855 -0.98101452707815317567 -0.77431123731522832898 1.5494664552120154255;-0.0085225965094226363572 1.0389099400367503012 1.0421188783873849282 -0.044647265227409617394 0.99700240227227199252 -0.94801822311587358172 0.91378922469351631097 -0.22954632462041246743 0.31039991955683243763;-0.23464225072223957036 -0.70634333777899049878 2.1507299511552320226 -0.8220355025738651511 1.2090170999083797998 -0.73012685282736877745 0.1569398196425516312 0.61448749244707834283 0.84644982091000531277;1.7408506253093729566 0.60214176200712177245 -0.6205710923266302137 -0.16301233287268374061 0.50320862409883793109 -1.1043403163710161508 -1.5091325007738636277 0.11566712468906222011 -0.21870705469263521104;-0.26120144991370758403 0.62868893149444182722 -0.60896656731473730595 0.50964777734872090953 1.1572896075223235712 0.96226156415992458726 -0.91074235486897325842 -1.3793031426550845797 0.48512558974919467447;0.91746554899946408668 -1.3065166454994323608 0.42663104799765921848 2.1648135510548049965 -0.86708149541160184359 0.8834600166517507791 -0.014028256508381548029 0.43869449046194963771 0.03378445501433992304;-1.5487716344581174965 -0.84160428193713754386 0.34474374493238862938 1.0136375134687769517 -1.1035366674140258958 0.92449350022698773 -0.4900964589042470787 0.5704871561866952101 -0.7374980953437908493;1.4451989109668381683 -0.1964768135935557325 0.15623926857611092345 1.2859287594980712832 -1.4493470653032258788 -0.15975211897937721672 -0.37386097495072001529 1.267156764066168062 -0.1246763647256777241;-1.5397843766497452123 -0.41877477769168514055 -0.050849595291275910547 -0.71676840661867247118 0.59660412105467874877 0.94925236379804833753 0.40972515438766776708 -0.26591049104862080066 -1.3505075473148202558;-0.8263099236086256516 -0.55343914294366947093 0.60766688341523245054 -0.61232948908256812359 -1.2337933785608821147 -1.1996162354825798957 -1.3074778051310840254 -0.18948568717800171046 -0.32387050518700449819;-1.0461880496901960758 0.66590410565973046086 -0.28040993068148301059 0.79306054926246871695 -0.86904351691906334132 0.62162096944670464094 -0.68756161304136187429 0.54589340877693759424 0.95628312496166545387;1.3184849806706557818 -0.2921121504885151321 0.7617447822376368638 0.33167881011238797839 -1.124654993040569595 -0.76415708764343270865 0.54754833545501913061 -0.55009585507623537382 -0.88938852159347692172;1.2233355217361052691 -1.2334818723044387312 -0.14041370086772658743 0.88764599564363533268 -1.7129397338076726154 0.7597226801033565291 0.19641837474876253089 -1.1021459093899619308 0.19951398194554148535;-0.27238367942503011188 -1.2771848624418924434 -0.19766665972496033632 0.084582309916778911085 1.0540089809214534533 0.24546701274308146967 1.5879686633277330099 0.95286467173952571486 -0.10065788486667075208;-0.79403936314964873588 -2.194357730686528285 -1.0968145810193268286 -0.61666064657309571651 0.87957896224600873314 -1.3115975429964339405 -0.84712017213305679242 0.3999654909995757901 -1.2528165514003517522;0.78685062901515545608 -1.0152923441373409297 -0.28219887184013486836 0.16468002045617483042 -0.19301091748587065333 1.6373195027058542461 0.58341445073912401309 -1.096318065364029426 0.54538966380961007019;0.96493680176012119887 -0.56983489087734950918 1.3597762067667906738 -0.4587574420046078294 1.2528874252587474114 0.88655802931544036571 0.51728541453372123282 0.8354944030555399026 -0.81138089828267367931;-0.11183218903952760193 1.3534464480139563047 -1.0752320810100359783 0.75803461985399656076 -0.20415733241372385764 -0.34205572860876315433 -0.82808396797827432678 -1.596766251086491506 0.55228755488069647406;-1.2804380186733428371 -0.72010119201484257268 -1.0796072319532241668 0.96324310638570220799 1.1059922681645226739 -0.43452988393837732595 0.20470738822284545444 -0.14265768693082683805 0.17093948423240676315;-0.52676579407983192826 0.54650483025631113598 0.97678310699135240114 -0.43412526765121972616 -0.68119862857053503635 -1.5515446823603589177 0.51981640032774745208 1.3392240399058197298 -0.30862170646303038746;0.65160409406129160548 0.49032162033725451566 -1.0161453226931387306 -0.87904277394582219785 -0.44727196280560072017 0.043817985942889325912 0.20042164621006106073 1.1016518646435244921 0.52548325426633379909;-0.99063820821669001937 1.0278255821949431326 0.83741966457775152133 -0.39242287489412280843 1.7340209118272389421 0.49776524545155520496 -1.2324573799589990664 -0.47633805148731372947 0.82576646330050240685;1.1368950322750071003 0.81495479738290377281 -1.0869332198509580323 -0.87231760077423292632 -1.0768319943227273594 0.46846423527638919593 -0.18344507760247208417 1.1349328989475659935 -0.3890174185355129155;-1.4622976391987940747 -0.0023782185164947433273 -0.76161660879420234327 0.20958542914464467488 -0.77989701308135217506 -0.40398065624719753375 -0.034660679381107520336 -0.065853058863111851862 -1.4079826217346185224;-0.81537770343314530663 -1.7775474124735166637 -0.28619736706262144388 -1.1866954535486378131 -0.65924899215075527525 -0.9394706324165356115 -1.1407558247295099818 -0.71095747652652574455 -0.80880592925837235807;1.2384642674297530185 -1.1169055719952634131 -0.38168672504482320518 -1.0706431629927732896 0.4995214759527699111 2.22278073187821823 0.27934822098860762063 0.80892911109446552498 -0.53226185715820661937;-0.98009755614534221912 1.211452757424465343 -0.10032544027107771767 -1.2268693866316382479 -0.58815790501719333871 -0.94726980932664972546 -0.79448848158696638855 0.69011797238889693862 1.9868720834173887457;1.3940398862460361418 0.99767689403061288189 1.0983738317873299462 -0.57645943011849853921 -0.95779034797456985562 -0.49141817195008563601 0.55115741665600548327 -0.42534865652880093911 -0.55598372602464440906;-1.4688462578025598404 0.94292642533811565908 0.084574958637392852467 -0.31365299265905721704 -0.30649110202384449719 0.14596899361759407832 -0.57984284580248679486 0.85749907378975243066 -0.43824932803482663513;1.478959284415545028 -0.37670620557991196797 -1.2786020280989973674 0.30954580146470550561 0.87388456754292187512 -0.62946335654713170271 0.54024797880185737586 -0.62040145337008112403 0.15705276468427042946;-0.56614299570498416436 -1.3120138829586827089 -1.1873037505484025367 0.66692494311944505725 -0.14545153349225747874 0.19726873443595757673 -0.67844688400184693933 0.46746661538340295028 0.86482540379095795835;1.3358079572738745799 -0.79959079989356385276 -0.81632217502987414193 -0.45349884351777552949 -1.2735922726154691453 -0.78767725255826903652 0.74036458060606669118 -0.22505794072755413993 1.0286666981898402451;-0.46485772097831901117 -1.2147567558834466706 0.061757614609436940756 -1.1062386595988134008 0.59307382138747444245 -0.8314354091873160657 -0.25510223871638759707 -0.58674395189001415929 -0.83187867307216212254];

% Layer 2
b2 = [0.59685470594506284669;-0.77126624512945218815;-0.95085813754151471411;-0.36044271444626052592;-0.93143062787107067102;0.95970504411577772785;0.96183471579773927029;0.74599285954014959987;0.13596566261736095504;0.11144626874592851451;0.8214160137205044343;-0.64300331313896241792;0.41689229826905926934];
LW2_1 = [-0.095348406609890343222 -0.3471586027259433993 0.75440143802491332892 -0.48919610452696038472 -0.46685736456521348403 0.40252224685264348381 0.89350204775772334997 0.54899055064737289911 0.64919378972811536688 0.34755116454179157959 0.65851695149424160913 -0.60462822134565386012 0.71970773370266083457 -0.37768592589034899465 0.33903297694393236261 -0.72648908703037107237 0.50377550978990881525 -0.65444024950285872855 -0.52729089102097626007 0.48006939740318688159 -0.80768753025469808282 0.32494064046160142656 -0.59089181084306285907 1.2258588232612086522 0.25859054319602337024 -0.29734237418672060382 -0.96587612102227926592 0.42464595818322753429 0.78986616863970415814 0.074983187351589319913 -1.4857656856067198436 -0.13171227023290549285 0.37530970460530066468 -0.90603716883978102636 -0.27888508282518126302 -0.94682420721308513389 -0.050088762454865043416 0.47018549294207145905 -0.19891273296198816456 -0.091478953816357011508 0.4717868552219953715 -0.65980465990560899225 -0.30066709780134931451 0.10999404272092654089 -0.38598865378944574589 -0.90074725332491234475 0.6995687675479298484 -0.85078476072300768251 0.075700913938302888395 -0.93480021011461045255 0.53378112727325444098 0.92705215937054119557 -0.81689219649674549295 0.40766170071264645758 0.35795014911019279458 -0.6126888162684319683 -0.3301921099692137207 0.67897705444590472634 0.059459881679265275123 -0.049582984888365468079 -0.71038328989377619305 -0.71521438594213082585 0.4586421275382476237 0.27386194117000939308 -0.91308715891359826244 0.030775027046836579692 -0.63872882652045159801 -0.91093897151178493399 -0.24242338313337849498 -0.83329198772129242645 -0.27750563587105492314 -0.52020658228214700092 -0.040446862921673612523 0.8428113492558196862 -1.088429939234686783 0.035933334675932876445 0.76135963854058830158 -0.018599615980577757779 -0.76472812199525064258 0.41442352381550828788 0.41655656804047336284 0.78189970664199404116 -0.25332742393767049283 -0.22902482082435632327 1.354148304046333573 1.0024028644162639168 -0.71329443152881932821 -0.31514847761289704886 0.92794083956131445667 -1.3694617150194388078 0.66902350682336797494 1.0541213856358599976 0.31864837918293376084 0.59165252094637099667 -0.89766265546812817888 0.49577042824857692205 -0.092270562921791379751 0.72768669430537624709 -0.38849564473002162757 -0.26648342676454039868 0.015379777263024543843 0.29863992626048624368 -0.75726940330159153714 -0.14032522238870978604 -0.37833693173655785769 -0.37999707393732701233 -0.64824504624377643491 -0.66388216836245717012 0.54929265325670018072 0.65764555426296056329 0.28416181493987624496 1.33175668413481052 -0.45672049056788077692 0.89094011628627156618 -1.3199724080562966755 -0.69373291441499551624 -0.46213289571894133889 -0.14974243869212638947 0.73516512988711912868 -0.5479755411632448725 -0.40493366146092152347 0.89956780983016149111 -0.40968641569551123016 0.35289097099192512363 0.4465524579369519742 0.039592735027391780245 0.20647235370974256763 -0.19303940854530929339 0.17576034577018659344 -0.57344392832422919071 0.93943083855388875847 0.039255992055383485961 0.62770645404311153914 -0.087740434234383157808 -0.40954397080065546577 -0.86874616254311576302 -0.24080845015551127775 0.19030114927641469946 -0.044106263792073281682 -0.85913744174761963457 0.83631499864411906753 0.57624455647204830822 -0.82188322713847872247 0.43779321759231426547 -0.59776052159743142678 0.58556722580834896785 0.60281494115952660717 -0.026905050967344357193 0.22999683425758749022 0.47194750604895013835 0.08401973763381093141 0.34168886001617759796 0.14094785094574069362 -0.47706822630489914561 0.14783959597704962596 -0.025977880698984621988 0.21945822885234678168 -1.1095581408718229177 0.60545945589429006617 -0.514242560696818507 -0.66635951816691130212 -0.67920739979709154888 0.18950773719066604794 0.74351777907753457963 0.02858134903663624854 -0.12331835630198480225 0.9824855479925288515 -0.36904706557526201216 -0.91047030484024282782 -0.16815615812413384211 0.14281329958661936885 -0.60083775822963625401 0.41380514929418887871 0.48759273589156071349 0.56142682759666784342 0.66400714686789774621 -0.82526813540860688434 -0.011582304950291121698 -0.35964070795848829265 -0.61412936817812191492 -0.62507323346672694075 -0.10688464965504462789 0.33730197526753863402 -1.3657877617325524522 0.15451533437060718801 0.94270609055959497802 0.16748208358590649381 0.98912918772896851749 -0.47689955229150132743 0.12192170219629537564 0.70253355214841217702 0.80006211272329552653 -0.91366624873236967908 0.54061971420626420137 0.073542032253634606609 0.62642659948283585525 0.73229875616543926853 -0.42339139185299928814 -0.62226821246640040552 -0.023585692352356135704;-0.75840957162932765012 -0.32963911900198739069 0.98016053518174628412 0.55320716494974919719 0.27952298288573368401 0.17075828339779886011 0.85007009976574499088 -0.80281096710137411776 0.85212971710971530115 -0.71531701298320571336 0.53599694423932731091 -0.86474492700959371128 0.19249408615099206088 0.20469764351902955402 0.60933319012096665013 -0.98898810024360839233 0.24359673170254181329 0.70981580954415690599 -0.16874680184990348275 0.36767565508614741265 0.56301628689487803747 0.20919320755244413812 -1.4593671585210055142 1.2040062383316751937 0.44155636609867782161 0.3881131086516531048 -0.55226019103816537115 1.3453673823696357115 0.73456008938535344299 -1.3865526300741812804 1.2647695649288144271 -0.10858788925401692549 0.8248360047322181865 -0.46661310204173506166 -0.08018756542644238372 -0.58224337173298323922 -0.63529738810997327114 0.035628147132866792857 -0.56025940588072553616 -0.53729910473081898825 0.46327333431667511165 -0.9537579626629127949 -0.33363368133076987121 0.15508446559898106387 0.82484446359330354515 0.71752355728210703845 -1.4721278872527521209 1.4895827844149938102 0.19480607598167265504 -0.95555367709391281217 -0.46398957037192700703 0.80176842407998549778 1.2869017273747525021 0.71342313165008552911 -0.025144404864255519988 -1.0811603200974988503 1.0266680283938340867 -0.68059926138532755857 -1.2104911261747675066 -0.038226933016975807311 -0.32341431589857883022 -0.28202618898035847206 0.67600850042095661507 -0.84660040101982558802 -0.42935640094451243964 0.87504465105576600958 0.79387950609091928467 0.33681550104249768918 0.18126802944382766625 -0.38215841508124337444 -0.35667148168367202032 -0.44635355014928418393 0.73307679007076465005 -0.61468017159563936858 0.058270072377870907321 0.034930232378034810348 -0.17582678180461216999 -0.71894147379276296395 -0.52874145279322193325 0.065837578815057917758 0.86460294055373521083 -1.208482215174630392 -0.50134865104174275441 -0.35486269475526532879 1.7682406564953920824 -0.6313078194049970282 0.25515381024897676454 -0.61507428525867946512 0.16132277476274109462 0.056642558207334742226 -0.85223685412267891071 0.37596706729279361081 -0.31378470615804626709 0.89362509689512581446 0.7806164578513433705 0.48896445020840240137 0.87696877927157201871 -0.099197772870013883884 0.84619429815346169921 0.6112057049118901908 0.30338832541053112335 -0.08138177383322765801 0.25651996609600058452 -0.47126931103109404031 -0.6630779673413471631 0.98730375480937671018 1.0249929019508086103 0.1527228450906759627 0.17219933752762031642 1.0989915748844314436 0.046482033867114157244 -1.0250001814769329478 0.44908209620885686242 0.020647682289958203816 -1.0157983131297962931 0.60581343193932346569 0.076373385147236586001 0.865541173412484377 1.3093874995856298327 0.80323696614072692679 1.0549941200877188674 -0.48497637224856415816 1.2351433683476438219 0.64931776884763525715 -1.0122819559164639713 -0.60500513596637550684 -0.413497748098336948 -0.068097363572803201737 -0.77254547482464730468 1.0359132000703910048 -0.27602442199367427378 0.15786544234315760815 -0.39176635919177110745 0.38717393966230850832 -0.97691706928209731675 0.052343321793870287162 -0.064403340178944917804 -0.4345670583387441499 0.40989987482335349389 0.98303771467515188576 -0.49566747596032884049 -0.74691421705187699409 0.82384273162141752334 1.191237610463803609 0.86340208003467078246 1.3730351242008866919 0.90658026239799749391 0.41408054325968085552 0.031605570442261358977 1.4217614438999532922 -0.27333750992566496762 -0.54816857899204274318 -0.28306158541221987379 -0.30099594565273435354 -0.9914479101185008636 -0.25423831437186367177 -1.0503254187500292716 0.32745761009518364881 0.29954559035042993553 0.89780679541421204437 0.33174817287694063905 -0.2858680863325655519 -0.028977919487861041048 0.74688189433283636021 0.82391550152501191739 0.60156383283774994553 -0.34604710089313839294 0.014964647307326814363 0.58280702235109071996 -0.77529368364497319721 0.68483514261667677303 0.47989824276893655597 -0.93033204605509678409 -0.75953837472444196699 -0.3663956970535657276 -0.28659294008045865798 0.57678697558628100328 -0.19277111278386954707 1.0325013060016183797 0.29301164171726967744 -0.62668529988104149098 -0.71361032392146306336 -0.32274770627194043771 1.1057444115319416955 0.92403550475827167521 0.21578950402882129955 0.1899544881957678788 -0.62500064453854042856 -0.87905187968278131194 0.86566554658413619183 -0.1538141381910433092 0.0019229129314990555527 0.49186383968856656201 -0.16335301206561522736 -0.32932398113504934845 0.91201870004441520923 0.32980772248696199611 -0.65450899111394489349 -1.0789567927064376285 -0.85317229704238417565;-0.15306136246912163679 -0.025983932573780493119 -0.072898392792987071198 -0.3044679317633450788 -0.78620993175722331259 -0.86722148746671479103 -0.13531457386952008837 -0.53770789377282379728 -0.62442809799493059764 -0.28648082537985547491 0.7074844831938771339 0.62409800606184917537 -0.48843429023549050916 -0.61896296356157387564 -0.46708051083447399421 -0.38876298891487720555 0.88970197178288890072 0.2450603498773076816 -0.4211011777072256046 -0.22648934827512251511 0.85444884173770352387 -0.19130810635021289201 -0.11756151644921133959 -0.23879529175339142544 0.93507551562586910254 0.7446355551733213618 0.85870620264767072438 -0.067469467270518432289 0.87325738648220196936 0.96500721977872772062 0.63363587033604285015 -0.47477449490240719587 0.88119967982966851405 -0.039318322834080141059 -0.54706039457962563066 0.8865958134521216838 0.58432922055076774726 -0.030798564486038328136 0.43789944181668588596 -0.75430437459444488191 -0.88684707217266589563 -1.0746834614868072677 0.10293622970153654128 -0.22927822795678234891 -0.12902732532251029451 1.0298705790648663427 0.04102657834008401061 -0.59196760037835549628 -0.61802123562890254327 0.34814339193677673601 0.24684636252528163736 -0.89613052227006595452 0.70705900242619212914 0.88587476342389548378 -0.082909330239557321729 -0.92022793200412889014 0.74592928915080447538 -0.77839808346714389753 -1.1648452814114365061 -0.75032227353325697816 0.35284495867225207366 -0.55452744306610346481 0.15272769030882879515 -0.072034264612768308944 0.40543819191628238663 0.65761156240395601813 0.94960027543681124751 0.13596620200733541828 0.90326274219538371657 -0.87244938571772556735 -0.73926192742966645444 -0.094246662117288479421 -0.84839801372072265462 -0.60153786198705883059 -0.3240670257586513725 -0.18203995917494175671 0.78454813122161504158 0.77941413141070625681 0.35894962954145348544 0.016374494710408787207 -0.22422437817580143093 -0.042280163485977559357 0.23184162413458728191 0.18582009914664207595 0.98983137173362323313 0.057284837211376817001 -0.36822135747179579601 -1.119398777633546116 -0.89611908519033367515 -0.50021638155619796429 0.24901571983525797038 -1.5339172991631573328 -0.24480220678304229209 -0.24310036298581816361 -1.096567493539900795 -0.11168132313390936872 0.13287992984219509918 -0.87362505569024229146 -0.32922633858803351803 0.28669718339504812743 0.27910125402272401018 0.78108334966327608306 0.51357503987989983063 -0.099989444080578596119 -0.10039164390833096863 0.47301361491912419233 0.4466659481654406405 0.21129328461092980462 -0.43905129496772216102 0.043363960889417088596 -0.066495034986926548903 -1.5136142622066721675 -0.79547501210790072523 -0.6439401553433901082 0.1605895324919059397 -0.71008958875073679984 -0.35301350551401244893 0.32272864326098282817 0.84843648961940010267 0.58117843790967738116 0.011122571340950909366 -0.61518937699062503643 -0.023135767822496499518 -0.46716950334797613387 -1.2735591912793835512 0.24470164905107713582 0.16354406945137853202 0.71292839564010901388 -0.26605925870877877859 0.93150901221786619466 0.71607359543317306017 -0.51252551160086490256 -0.22765399695728150142 -0.29765964313483062043 -0.57662977875937360128 0.5448516278118074041 -0.54512864499579483102 0.093675835373701998865 0.92868105779524745547 0.77979811111432006943 -0.43813036517434822414 0.026736533040429805164 0.052276342765130573431 0.71625604408821630376 -1.2047570546381525247 -0.35401564346186320531 0.10552559204119048297 0.28234545893164864072 0.74284189007269285643 -0.14914650795315989584 -0.45673550694379655424 0.37359326825390776206 0.65382319778790232156 -0.78081090648391127118 0.4146995396222725172 0.43547662038649848082 0.58417696131272511817 0.19338688726520406047 0.015368974172044466003 0.3409091510228927091 1.2826653355854280569 -0.7122478938610133925 -1.09928354415915841 -0.11822413149893444551 -0.65047303845508386289 -0.78151542301103238408 0.43366600820493134139 0.9041655862815035638 -0.56968457084594703588 0.95887910450124247408 0.28233672411110460887 -0.29924721749563820694 -1.815476830957596821 -0.94534488307292174891 -0.58003434356318095411 -0.24326353388372279341 -0.5323960424610293396 -0.6433986002751217459 0.029572563391093299734 -0.92927167447926095623 0.2027952267507860673 -0.29657241293458014297 -0.69504515899013297187 0.98174599024835074168 0.21514243886573355957 -0.50353036390602090577 0.029812508227050144027 0.92396315902686154686 0.76750731155919815762 -0.47385380737103921511 -0.29435024165929413176 0.60883173089385056453 -0.86676789033415657659 0.071662298232768081863 -0.22642899396720089777 -0.22554227886698213768 -0.64960436230682716552 -0.17858114776931485745 0.89433489246791986194 0.13569973517075420433;-0.23994464475485166588 0.18876972064575994747 1.4164107616931429501 -0.63880108791174716742 -0.55826386770918179359 -0.64647126186223058397 0.33699966249849960809 0.59389229219504091617 0.31424236344472222804 0.57175138172585515672 0.076610780805542025296 -0.88992801268126775494 -0.041646496117595327435 0.98972912000670942856 0.1939025386140306173 -0.47515280410650945209 0.040393222526597813427 0.12401118561386159644 0.0709848125430671828 -0.74812400313379634476 -0.46912597528108351819 0.26294631957090502938 1.0308534485210809617 -0.44530413794211493039 -0.96733386663085618729 -0.11684619510957415522 0.048750465612045809638 -1.2538522310467414833 -0.45204321696609134351 -0.18429009198076737319 0.0059403195450582800888 0.19696589856365601112 -0.61898103147605243457 -0.35302982306908287091 0.43501212065136973806 0.99580182121544369434 0.71693789379256234184 -0.42944529197839664825 -0.57006419930816465413 -0.75308636213654467362 -0.37909760937522385404 -0.3745652632653710401 -0.15030896923279019051 -0.35061338158430671585 1.1010778089630692822 0.35174184354167076227 -0.061184215159640710502 0.36764188860173047102 -1.6051566478566223761 -0.44484296588242139281 0.83198171284055988384 0.12518910500158406118 -0.67664162044160713894 -0.21457563112107033709 0.75715755407956786271 0.54890535792999251008 -0.026060744460871160949 0.30144206688130559257 0.14250253817783764543 -1.2080622241806879824 -0.34654531267605420686 0.75763875600515862008 -0.76753846156293459302 -0.75652270016954248355 -0.75626947322555038156 -0.27044533093727046724 -0.29348679239231234561 0.095757892241034550662 1.3325665293722239735 0.90673325827369499752 -0.29273518253809766021 -0.099150352153716037051 -0.59358567263502093336 0.7544478612602234513 0.53759183521194064959 0.1835271396194196325 0.28609348096931691563 -0.4990424064434739182 0.61550947134570010988 0.85060714002174908632 0.74657956420973325962 0.53382705875836644616 -0.53829369653998482281 -0.91653613366877395574 0.45718809278968114418 1.1169319463549252092 -0.24377922239493932111 -0.74993945124630445598 -0.82213479067899264408 -0.58044368282830038908 1.3581273303959364718 -0.52980406142870883901 -0.39475055669737030284 0.250378835302383973 0.6538130063711838913 0.54347102634389987674 -0.066572041382392241338 -0.15578762366354875768 -0.28255621438171146798 -0.15978794624653994139 -0.30693900354140396525 0.46327140896469232167 0.45969514117939591635 -0.66716873929703479629 0.59682294704721861045 -0.47918613719289027131 -0.92935093219408926313 -0.53398383875371391305 -0.40835517022915979179 -0.39412541865957206877 0.46343693694962795337 -0.52158720140864955894 0.29370562826921997601 -1.0705231164884385642 -0.042221615934636781697 0.1954748579436104694 -0.58907009237389962308 -0.88896561170880072922 -0.98451981269709565314 -0.88864952626853377371 -0.92784005150923087868 -0.95681394974086741989 -0.79042935437201633508 -0.2516697890556697792 -0.54417690569773013998 -1.1515616295585986428 -0.27446981894935162938 -0.46346837203363006052 0.2048056897146447175 0.52089559698340570648 -0.069034707322421742792 -0.76491356046580627481 0.11751638614948888006 -0.6432586813446516949 0.99353829218573030957 0.079145133893303673545 -0.14703310523139972998 -0.73571269025872587655 -0.84735809833334396757 -1.1616880243887317548 -0.29055502134143162962 -0.17891444926038091445 -0.95816102571293593204 -0.58816535476804543414 -0.13829945758365996822 0.61321690167243725345 -0.22387657510318950682 -0.090019500086760476099 0.088433722612813417396 -0.54223396423779657294 0.68869206673988692113 -0.66526963462608801336 -1.5699142579871510073 -0.27541383740473251995 -0.68131978980059526574 0.60049869089731866545 -0.30224622597284656056 0.80822293628796304521 0.77683620575593781421 0.65912032369194439863 -0.29023509710722655841 -0.1101639086094131359 0.81070132873829370279 0.38645401993190020562 -0.54723980038987229957 -0.97350906072239329347 0.44194607490740855926 0.13291138469173180425 0.50676764684718156317 1.3239418106575664424 0.0011041422718672542005 0.071310864614584176802 -0.63880060438583352589 -0.10493623486852486637 0.39920435943392063027 0.59454950079567459031 -0.25322867556536504674 -0.33780016557711678438 -0.20849969088818506857 1.2927528453510941375 -0.48413355404210867139 -0.4757979036270160722 0.27806595539505979398 -0.18557533941182094428 -0.46205651914254325385 0.27084342624342938599 -0.86561477118149687815 0.60761987280003748602 -0.61677029806000538414 0.079339970163907660994 -0.86196922566743838789 1.0427686165287255449 -0.55534244950091860016 0.51383124149787551271 0.4897469051447693178 -0.81753292872150751247 -0.55563778289853416048 0.68574093163581650856 0.90509407101963268438 1.0043743269428631049;0.9273110483782867064 -0.26516364787119311996 -0.20454255361871964691 0.5561373954619409643 -0.4038482918096849561 -0.33576271707392091326 -0.8136746055638770514 0.12835877751692226223 0.23638663098356937908 -0.71552777947257550917 -0.51957205383741000837 -0.71298713368819077729 0.31428140680197358403 0.37977862775869830614 -0.39691680191707595649 -0.80230598517153206561 0.75539234733317783821 -0.63992191898300632147 -0.37539192543523075551 -0.0091899380357072738695 0.075914432717738886125 0.8106016154767763382 0.79959555991572972555 -1.1816880839039656248 -0.61402047549573179896 0.21572664039848843398 -0.74867335898156428531 0.23456217361125153431 -0.68644283383942628074 0.43860248464205581209 -0.77094702869192055505 0.062202843823823350533 0.7620793539000222383 -0.21497415895516472362 -0.65075510441830142216 0.014549094674092873797 -0.86262970698135632563 -0.46630950882783644973 0.20424986528897284832 -0.013705636834807341518 -0.40889994665895718073 1.1966192837371052438 -0.379546066622939271 -0.79939021840767221505 -0.32854213510888941041 -0.65779469953973634944 0.45476974032068795406 1.234566198477514698 -1.2439296117900857652 0.30985580724356065474 0.075233550913153174333 0.64431527709404767812 -0.63651185804525578504 -0.59854789994368351458 0.86435252539361573376 -0.79436226791627839727 0.81086222661911533383 0.56635641920839696617 -0.64892663946832829236 -0.40193362486309625048 -0.49595355178571248755 -0.3854788441895420914 -0.32355999035265453623 0.51754541820888588788 -0.85199901613573858494 0.063317578305729732557 0.67748893371162610677 -0.84442881728554775034 0.35828231636544594085 0.4107368280671712113 0.28467983883931058386 1.2558712076729106055 0.50771252373093411769 0.95209664996719212127 -0.83068959810632658769 0.15121682379827311449 -0.93540868018733613898 0.33459375761282711403 1.0218672722361605842 -0.59789630934441084786 -0.75834610207039854224 -0.080787906787790964014 0.59308049515732963464 -1.1148850968466443856 0.55570997905836705399 0.60725075015954055324 -0.16299235624811231338 -0.14412070076392530238 -1.5854921063612030796 0.2069833690954224481 -0.2567779083072098123 0.42503123777291484942 0.23250844049131574875 -0.63373936224352100943 0.7963614464592000397 0.17291758638735035825 0.18902998507691168295 0.48923767928416633799 0.21265832678465929062 -0.39647274211927363563 0.53477504216045002039 -0.94153292158582135851 -0.25977852213898927625 0.011491967273610535771 -0.14027283156775566253 0.49541105744994329285 0.85261707993353974544 0.2228148240602049468 0.62202064479286212073 0.91995887609041715471 0.087673399260818615786 0.55914295346784692597 0.74033242339007199195 1.0258296457438522697 -0.0060124954156866930455 -0.59739948671306242201 0.62676177996143545013 -0.20765286667467347526 0.67563315813222835082 0.54690069031251131726 0.22068457638483021666 0.28204639525418506718 -0.3552489215763358632 -0.08516076347144799219 0.039720183373261684634 -0.43817160660149073736 0.4815377208786941754 0.30040664439624259474 -0.86920349264931684452 0.65208045560805161234 -0.58777041562651832773 0.24775429179414459879 0.56528758209072671459 -0.68464070715485503271 0.36258756989026513784 0.80758388495943334018 0.017640734998597380062 0.53489769452512214709 0.12473500768690005958 0.43202767030514055424 0.17003575109013738254 -0.0319602290889978366 -0.58631147063473465497 -0.020171330055005393805 -1.0026805917726893114 -0.05410102204343139598 0.89621888984095277042 0.58802290340397833646 0.14633511833987397632 0.82448627310248223665 -1.232124774882638274 0.94929574298865249116 0.81076796203055501167 0.049026091988583334058 0.2932018988754240274 0.64783083908612870694 0.35213105742400274689 0.31263007283675720016 -0.31763049624140493599 0.57454140777237105997 -0.23278205488800901568 -0.42004527295383153884 -0.18627032287167619162 -0.1556081068109831933 0.90496203772755590133 -0.11141158458164401868 -0.38906738525952272445 0.81155875600705051909 0.30183345817015028167 -0.83977732481823819111 1.036902190401772561 0.24937689637459153902 -0.53557152405174024423 0.86437132393076021586 -1.2863714756098376668 0.34227229454225954752 -1.0489947269437949195 -0.1218176992132566222 0.82300943943388737978 -0.63696539519694406195 -0.67231966422386857385 0.47066643992937556851 1.4518774577450015428 -0.081986960586574286758 -1.0659264344079251163 0.45921128089799223559 0.061313915101102754723 -0.55435593111768066699 -0.37661372280355809306 0.39412940825976905401 0.77069349641554407704 -0.77677742527081039547 0.29665811097439898081 0.29628456230929389736 -0.72816960373016303976 0.13956380488427938547 -0.26671387353459896641 -0.25865511030286703065 0.82135558297021948881 0.17519998185723345552;0.13784433180333549585 -0.20200237401323059561 -0.70976061717277383334 0.1200176500344925512 -0.60959344424269168439 0.47427588201824533165 0.27263545861880150722 -0.5867590566028977328 0.96936260349118441582 -0.61267251785960030741 0.71355842427616711365 -0.4040231560220466922 -0.094140624982074413984 1.1328007397251802502 -0.41290419884137208317 -0.27767099702505448899 -0.92393334903729229524 -0.52177758873428503605 1.3503151037281031499 0.86085422597151750601 0.04153050963827525921 -0.21220069161011584358 -0.83637728892935347957 0.38777365077141956462 -0.58192198634004543845 0.0091468497708876196628 -0.80279627524903318658 -0.23388058448525397837 0.61438304769137985772 0.83820649805055080783 -0.0080858553589946615542 -0.62306159133550165219 0.55949260027922509408 0.71269734904663084585 -0.077052904346847153616 -0.4229372378752315198 0.90183821907900840742 -0.71805295197881990887 -0.27884624729701668056 1.0084195614905406835 -0.66919001435154967794 -0.013134809310651992739 -0.83735647762662279714 -0.12186881764267010197 0.077842973119402109061 0.51945455721370248359 -0.35042197485844867044 -0.067932264943977735405 0.43455159477463589646 0.22302913535706997417 0.0055149825936408021845 0.3508097574134231289 -0.17223579625061055665 -0.74605417119346106869 0.55240833599168281953 -0.68716116607387434101 0.50824825674739426695 -0.015650286521982258864 -0.12355402533762470385 0.69894807630339550464 -0.26943847238171686476 0.14645006210512262479 -0.099576983042865538365 0.78175258824570170724 0.69383339462912962947 -0.20004583275742626736 -0.044732605162479878447 -0.4918907843384401346 -0.36555938855717362568 0.94763579348457904761 -0.35602144933746759925 -0.08914232348744001444 0.11119641434943031144 0.78591820335714501766 -0.81299239815631552108 -1.4062552635378213761 0.65062785675560208531 -1.0779237905619907245 0.031014332196192970215 -1.2274604690353854153 -0.054634871375704205376 -0.79574148615925976991 -0.87242363890136054305 0.026061099675693387423 0.063159822768697651552 -0.06643147141912618403 -0.51805845455289112333 -0.32549384563751870836 -1.0531406062916386368 0.58386942172970190956 -0.37146300541825510999 -0.63264731661650952521 0.31220682051378717548 -0.44901988318216268237 0.51444712654994806389 -0.52776236449074376278 0.10145954161357496892 -0.26594380053426580623 -0.59652291112323829747 -0.54367916661521042965 -0.23648393061119543646 -0.2456500332595488445 0.62487241399758430838 0.90399462020297172149 -0.80482398894092477271 0.022883368433718440788 -0.27667513715685954079 0.19818468038666020581 -0.36509586976202712538 -0.77638677237443509682 -0.56592691419319007817 -0.35641437168840561789 -1.1017872639006571767 -0.51142347443276503505 -0.31881983502035571298 0.15143468096345266694 0.14751758972169354278 1.4736313744135289827 0.48514097017060858752 0.21679506940645110191 0.035256545265130570521 0.33223836616246082976 1.1971218628367028547 -0.41526245868869965383 0.85954217562345314185 -0.035018760003528930091 -0.28861117538158020945 0.81210647129363400243 1.0483541133323710515 0.58859060362201010008 1.242776893256905657 -0.0034981667219830202796 -0.92164583850778014629 -0.74371515947007094116 -0.61120738331248303243 -0.15180948603797903007 0.11839334812790598683 0.35271042569698313196 -0.13742665922840577308 -0.25755461165297832693 0.84077751038285031271 0.40285702087032787544 1.0650214203263463908 0.31009282296724471895 -1.0044978202039283044 -0.10722742430921938794 -0.59968114350419510217 0.61974918256613087397 0.6904186688856404075 -0.48114917309969490455 0.35358618793610896436 0.50200213901927048799 0.20906637393559074356 0.29431105575388849527 0.95689867093680136545 -0.54145922834298165771 0.45208304292302997629 0.023836395032187832066 -0.16388000640070646274 0.81008018369199219499 0.010172236170736904948 -0.98570650504396217784 0.9372976563287104268 -0.36437007602714516219 0.051332359065648980323 0.62014575418259498818 -0.13086032284732737607 0.70011697912259507337 0.69641665738775870853 -0.21852740516280813599 -0.028447547649600321562 -0.24063314070432220704 -0.74560851730613908472 0.96712486851051904235 1.2616071835886037977 -0.69931922340543939409 0.35371318798041129217 0.15746220664311280646 0.53782383141951428662 0.067887976969551372397 -0.60642101629783873307 0.88328043772050857108 -0.78809652350562053869 0.53059203186577708067 0.22363232802846386149 0.89626168577427522965 0.65461401067847724278 -0.76886165976739473393 -0.82566311150099802596 -0.68909399676466187579 -0.475199138448271996 -0.0029215147022875909838 0.2921982628712501695 0.35423309957025539418 0.10679446204672220222 -0.01036489177717740684 0.28603974171694346307 -0.51511776641632645024 0.54935461939306517998 0.46484510345516466545;-0.8543628605250230823 -0.018818673253156913139 -0.31264446973294435228 0.98868553386019741858 0.25335486548297320164 0.078276032110710214162 0.89995385990685783373 -0.75158625414921897967 -0.086691950149059476827 0.99652191272288181967 -0.76272773461009468754 -0.36903405220757506955 -0.66620133542819826022 -1.2985162918750037253 -0.56439731334793252771 -0.27487774121465785582 0.35193630888047516825 -1.0763445626165488722 0.47835981831152507571 -1.0039638999855313717 0.60608712822307309054 -0.81537925991457516073 0.37950596592807073204 -0.52466349121227628949 0.77087738992839549557 -0.88051337457567047107 0.75418194846899688777 0.2433920879832452977 -1.2909573935580755943 -0.49763273638375066232 -0.280328569146324591 -0.85909328684159047551 -0.35218969442497527478 -0.87872584927897645635 0.88757777738778653731 -0.091402367462638633988 -0.10519554344319979877 -0.64118397069194210669 0.050447307400554586287 -0.54687289212963241525 0.12669458347384196517 0.40844312558122042311 0.012942967760018731643 -0.62451044450566017829 -0.26455190234612874223 -0.56902350268398249611 0.097122418080127490003 -0.17660259471745065607 -0.3725484425145147438 0.37562272552206027454 -0.84346969428068829799 -0.20752792982428353019 -0.25761847150891586944 -0.11714551761922796513 0.078804645055951777488 0.32309918508553653327 -0.11777991956623903858 0.65953912215748877745 -0.97765960812565477767 -0.76458612626952282554 -0.26556012943114037927 0.23501335500303216497 0.6725155633240144093 -0.39913168752189293054 0.092971651335011618045 0.11951623609542219584 0.34228728100472100015 0.025898401983175278751 -0.082219729320906348446 -0.13817651860125196306 0.62008770237675303605 1.2005343187796715387 -0.21786118050682248826 -0.20704817923803839341 0.67952720309881098348 -1.0726682324343395081 -0.23208333345370091294 -0.83307148370490036182 -0.54049222355290127418 -0.42695115879870998432 0.084400982593663950726 0.66288197090281131274 0.11273438785583841937 1.177863495731100274 0.21991856359307052071 -0.061981090358522013262 1.1992605611931628218 -1.1902102310648354777 0.61886263733701629697 -0.83316230085503184544 -0.46883307088941839069 -0.55283743858800593607 -0.48622422972004747388 0.70714867668966163716 -0.31403930426587217672 0.32915143362319698728 0.40080132373354965258 -0.24671230604512439655 -0.51532095840192915226 -0.39931350397307341371 -0.54238769700321631806 -1.0025902054884894277 -0.099085176055742074652 -0.30147081063620950747 -0.28344642080984205901 -0.16772185448216278547 -0.0023045861801282568893 0.3101681715234968495 -0.12909116547534460473 -0.60309716934712043201 1.0518267105627856495 -0.039460288621195376002 0.56275855838373611828 0.57374504543925319844 -0.76631259187804712241 0.65589913695497725765 1.1277082312143160703 -0.22693640939443476823 -0.23444493916493813757 0.0037864069692017535487 -0.72007006040530352475 1.296504902522585434 -0.030645013268166078346 0.75414150211667663193 -0.18662071837708826827 0.87502059287254996267 0.58464598976684234444 -0.69988535659842998626 -0.54456517543567883877 -0.95781120845334022373 0.40343618110912604635 0.22524684553415733057 -0.77443650700226274175 0.16678467827084381137 0.49630967048109464468 -0.51081310193459028568 -0.33577209874545688173 -0.97591312964843623945 -0.38796856883515551395 -0.22735135511649209872 0.89465501670495628517 0.82689660166302059174 0.14082043530169552348 -0.14072665733533046284 -1.0285690164324030604 0.017314740953019124026 -0.24265197218062170559 0.75937127892564637577 1.1435903191260881062 -0.6961928246259846409 0.17605280101735146236 0.35066702519272141547 -0.017801971095383551519 0.83567174936949195629 0.080917677997682582736 -0.9497359300145220562 -0.50714237280663831964 1.5271948240117736439 1.0579817101717745587 0.34566595756404255857 0.67347785920522384995 0.60765626487556889668 0.96599475137665646862 -0.049605308267317092807 0.28746405661415602717 -0.083150164014828803483 0.011489817799268834536 0.39904091052080770119 0.079198342383189165861 -0.42681181078688479325 0.16224249400532883558 -0.42491131643837221077 -1.4860757876255243914 -0.93129300027923189731 0.31404187375848902075 -0.27346082832304557941 0.19900864401666623626 0.0056631864508155712462 0.24913709681733292589 0.17368765777717498633 0.099061418424735731003 -0.13836735363983973524 -0.47940087313619389464 0.68336576958249206637 -0.90225049888751185367 0.47974614963606676543 -1.0710278597368254605 0.43767160979992664194 0.59267710602045386992 -0.17649135975140572974 -1.0389156630598157527 -0.026540040073329957543 0.58479714916098546329 1.6116075352876115812 -0.42438700130803463928 0.035728314918516690391 0.69779966613269295284 0.53065019240425992386 0.14280547617945954508 0.28672830534708776407;-1.0487737759773179125 0.52615772204561217507 -1.0539337656766307738 -0.85993727969200739469 1.1227787759585272642 -0.15499148344297342117 -0.015733535209091924212 0.75394839163111360136 -0.74349896361875544848 -0.79907260702603732927 0.62677259071688506964 -0.53233286270857049782 0.29676425502217634866 -0.20736226542057195621 -0.79251505167008340358 -0.53069606459546336819 0.88628257266591903285 -0.83765892250496698512 1.3303183352702316888 -0.69349458169174005295 -0.19461027381603263064 0.20630737216085981434 -1.3015013273965454488 -0.79256173433235299619 0.70182986278752490517 -0.76019747871208853685 -0.11719275657924629885 -0.4290461982590419443 -0.064121003813198795829 -0.177261642472119757 0.10922673872393269534 -0.9381228643860135552 -0.11364937719344722633 -0.58403519316387086935 0.87368449976099193943 0.5461716444562548789 -0.17758134809607628579 0.94727001814775046995 -0.13557047245282341508 0.32395354348547161782 -0.39256041851708206591 -0.69205270042610445014 0.35622877175056982813 -0.47315276335626832438 -0.54771509761071535127 0.7029033359476002385 0.13580981981782433432 -0.53773187701858105036 0.23052443620090609655 0.58387639037177940793 -0.26428404496972141002 0.55909316816944532036 0.91454611522388973288 0.38256270202203340736 -0.47795048959908958963 0.68965521885044211992 0.42108882147496740078 -0.73569499229046686484 -0.15819785994066043466 -0.05546841430893580116 -0.043245967333342842653 -0.025380852510181163562 0.22401872880718595726 -0.020045297152301334853 -0.077895640840937377392 1.533146495622377925 -0.52134554884332429125 -0.86554165986442122005 -0.82572552091120987594 -0.69467320899811380031 1.1382476191379711228 -0.38794135852035599443 -0.43676440072104905088 0.85124202518633740322 0.19273473646210476096 -0.53977424950890107169 -0.094293785224992515692 0.84021712553163485637 0.016402981692258504498 0.31851643298205573052 0.19171553216066627989 1.4106250774202218068 -0.61446204976286289412 -0.29960350202261848418 -0.84599280239032703665 0.75833435783998670576 0.13836497620849538825 0.043202388230652845336 -0.46950576984683112247 -0.81580873808302756256 1.1043333335157747843 -1.3078645120584031503 1.5495401197980271935 -1.1621188034660612232 0.18984462862083131829 0.0012298709056269016907 0.30863846643504316836 0.19769479083893518045 0.28027182412269230349 -0.39420268495253824037 -0.50898429368919295701 -0.81091261330295349996 -0.79640774788121848626 1.311471656120845708 0.13903212057781588751 0.51309565725978167894 -0.2050282019262884281 -0.30366459636570536373 0.56515350825907217924 -0.60864519034270914144 0.54948372093856590048 0.20241295730438008116 0.30815907837020672932 -0.080510724644823811191 0.54425226333034260051 -0.529953939193660295 -0.35778884419023765373 -0.10702586308123011871 0.39893603882121259074 0.76453513506652948095 -1.2928943456656776245 -1.0104715409319739994 0.28027999725559232802 -0.85544887976843697608 0.60042016722711666343 0.30926212073946285352 -0.021529775523500070677 0.69536826439505106112 -0.32961748903584536796 -0.21528411490375098936 -0.83823295636636407924 -0.31485020524245943552 -0.89533587487589294529 0.51997397803057221477 -0.15141216022993844725 1.0811337453646110429 -0.25929335563130223585 -0.11427307952356272058 0.3634576829088335681 -0.42767400871782601524 -0.56862072565193910734 -1.0158687385081628385 -0.71517893322938552725 0.54756528621249600519 0.41264633884557661014 -0.72812473860166315731 0.2487637211906006951 0.059948378660893614223 0.041007424007153715773 0.52570074366537855592 -0.46074826346015312906 -0.023802251456752347714 0.28059056761149797632 -0.30875400167468358692 0.64354154823510034689 -1.0289703161356860139 -0.28712372452980716719 -0.17659531295331412637 0.30803025402168643376 -0.47212436988438910568 0.90073315940705744875 0.88037691975655563148 0.47068061539205491295 -0.4776230273733984566 0.019270765700126146758 1.2037722378460902206 -1.206385376998972303 0.38461713196185920438 -0.27355094517637984497 -0.12519057665628835485 -0.82602348909068434857 -0.89893337936895312268 0.09422867509607288361 -0.11809594360530996371 -0.49819630812687787369 -0.04554209150997865635 0.35571978189857955677 0.72159113180399092613 0.18797673533991804407 0.54689338039036095029 0.60283590421554522631 -0.19809077500656968596 -0.074647445971952261501 -0.18713305831634532983 0.49074184138049642412 0.42673507143080280368 0.0097358252942290803705 0.26694564672220527646 -0.65708044467904791475 -0.45973225676846252163 -0.27480440474233969184 -0.29616440540612093413 -0.82626607177040811703 1.6527649099288967971 0.57105462866122147503 0.089946757563380316802 -0.71872701248294457166 0.47259615030881796383 0.94662802236671339529 0.72386691171285444391;-0.75889329586872233957 -0.38644607496753191622 -0.048395834571319358564 0.42438613526389940001 -0.72515806755269718309 0.51777132144701831784 -0.32484109361250085302 -0.82044062857807908973 -0.058224217909130349113 0.3763233175180916712 0.86138700697931025463 0.22220272031721785555 -0.33004942233888795444 -0.2688684228895503181 -0.62298430932888448908 0.72879375246218036644 0.81275341993712846289 -0.79594780892772165615 -0.23204760819701214514 0.30271289017247904329 0.98377898301353028376 -0.35819833142245333102 -1.2198977661563397135 0.69563170445342958903 0.033531294867593326725 -0.11148636933680868 -0.34735801149009792876 0.24727958808073846608 -0.53685632270608540928 -0.68091322194783521216 0.091402742040167461735 -0.49530175704716217222 -0.65045702669109761729 0.37366650813237378692 0.018996449106736802009 0.56397082101682649569 0.046709250622735037917 1.174732533589133876 0.4025808239248667153 -0.404077423587508755 -0.4656849733431138727 0.099177193395045645796 -0.51495090132686083262 0.41920931233356678591 -1.0095051685771645467 0.81054064904676381698 0.048928818140897126221 -0.92324397972202898455 -0.092965172691863356969 -0.59371178923695711038 0.15491918586697581151 -0.098451147662889565426 1.2647533992481820864 -1.0347994986317152755 -0.64850076549443069762 -0.62587343122628524839 -0.53280992201492416438 0.92143709277383289979 -0.033675214476314122014 0.76607212755722120523 -0.0068191438745620006762 -0.63183153875593511817 -0.76507468262381128632 0.34342894319584188478 0.59509775233695905161 -0.28966364910175207426 -0.68206038919133282761 -0.68750781593534704417 0.42370864104489525115 -0.049395753473097304964 0.25927475243558312235 -0.84218227017193225681 0.77495548762024202283 -0.13259478958350803812 -0.83608740769034450846 1.1583660420917318845 -0.73471668962760394717 -0.59937767468197822307 0.43444391928880793374 -0.6586262095812540629 -0.020076259116158221008 -0.2474500945244111072 0.61757265626614943343 -0.66121766998889253131 0.61050349370487044798 0.34185516325365156165 -0.74369552422605189612 -0.13475146157543593795 1.4260942848989079934 -0.30248657197205586211 0.36249433259239449701 -1.060058089467874165 0.79246092393781042418 -0.14862002646232133629 -0.64702052108317653634 -0.60348451058898644472 0.30479576474318781365 0.88966206278117188067 -0.73635923701863226221 -0.18458882772219781243 0.59074906063765375563 -0.77074851924159115679 -0.36894824389536590159 0.48602555559891491566 -0.16598410839762908764 0.26387784448512296986 -0.63863995631005565645 -0.2461379612148992535 -0.056972917435329811786 0.43010365047001120065 1.2601057830980424423 -0.049278047997186880114 -0.45286358300047763192 -0.24317922541355482813 -0.90202719041788348431 0.23027285494926649778 -1.0407448220162338615 -0.71675833703714630918 0.24093998651245618348 -0.68431870591978283258 -0.23809505264599484242 0.91152802067199434344 -0.4966446772824456013 -0.4470558792442232976 -0.26597103689569590035 -0.70918476209749059525 -0.84103737145577939227 0.29530480000505199278 -0.43494296722474895533 -0.52566978652462248434 -0.02248029014814452442 0.51040711010434502981 -0.16754914769494569371 -0.42545456225903072189 -0.58749880131516352133 -0.22931863742721986243 -0.9968963456287178726 0.3381464374325832134 0.45953774443689826557 1.0056504702634136983 -0.89275033234391665271 0.99164648059347526576 0.86474916912019161863 -0.14254747351012236889 0.31518190554928882108 0.25783491090453120043 0.56569989004728071791 1.1305377614081002502 0.01594327646432807527 0.39446205196406275428 -0.011380064221513483402 0.73478097091512262207 0.88154927752087641757 -0.49079028905035848585 -0.50242369496172634147 -0.30993777951372275536 -0.9582044656423154283 0.50368927865181289949 -0.90715600307168231531 -0.041198134868405081321 1.1571167860787296977 -0.48528005982600069812 0.76253004886156450226 -0.039195726105638650782 -0.13837021633652402119 0.40359622424183588807 0.12235599829739153555 -0.52015417821977194546 -0.8059081639073343295 0.24842574821685819986 0.73905768171266095212 0.52242673316484600221 0.80501123331335977529 -0.51902958204295879252 0.15801725782541123366 -0.9517054031568425998 -0.4627243669997322395 0.4591470142972597368 -0.32408421578153900899 -0.28646690213832692873 -0.73123240328128269461 -0.24891265689139624451 -0.076435817136885519929 -0.42465469604316707919 -0.28464041043452725788 -0.028496340779612893551 -0.35736571682870671429 0.20173327827219098007 0.5375940703683803612 0.034182733904168399741 0.52424504366594903981 -0.83359818617387926309 -0.86608837057139209659 -0.22777355471444005186 -0.061752351377816781797 -0.74216719461178259909 -0.073331927627013085425 0.12496889849231744563 -0.21739777056556483514 -0.095452566590176507466;0.6114878349482842923 0.93408712357009449079 0.34542658096477529828 0.75194789636263181798 0.17900684086956880625 -0.55127695451263591941 0.90845588470136706682 -0.90201606639668463483 -0.68627771625754097062 0.64619306172375179376 -0.93397757970307226927 0.67253769149388875626 -0.75068535961578808369 0.24383064405311888345 0.23720937028070029906 0.84648671659203067463 -0.78255543019226658785 -0.14804588495473383625 0.65142528455383164054 0.84098290270179121286 -0.48925862604411407553 0.63911183173815211411 0.39852607173519355444 1.4154500901820912251 0.43252348976436033601 0.6301121365570058197 -0.88626107732404346695 0.4006489324544419417 0.17386104149426867549 -1.1508834481346821299 -0.51253344288736824019 -0.61296488758304423783 -0.3863506840416975896 0.11841123030842579111 -0.33516660832645767121 0.31582629822914992657 0.71327090767360012968 0.79359898243504589654 -1.0873978616532382624 0.14943779553978231434 1.311587348114085172 0.83110093434793452793 -0.6982336214599474955 -0.22836553334090381462 0.62192677116084815747 0.63278447525533687568 0.53689942884206343088 0.6978991310691577965 0.7522236922239399215 0.35622754485036967065 -0.98372285638745093905 0.46165069540958619809 0.60763891691793925354 0.81087034137186064786 0.28135014191059048994 -0.45735153638717856994 -0.09524115664491375477 0.42403965693412626337 0.58616356115011636341 -0.06635628420077832601 0.3922185954329665547 1.9377220817701936717 -0.64787733136090353003 0.2343165680032496534 -0.8492651479016314342 0.70452422123583280378 1.119732009437587994 -0.28292029196790402512 -1.0138016975333623559 0.4987529411137833768 1.0808098875226601621 -1.1437122015337850556 -0.23499004035861542627 -0.24081992107084021493 0.45479689914496435055 0.14230356358573090225 -0.40801188196034426925 -0.046319103259422039764 -1.3089498026479320369 -0.30649863797403470445 0.47299665688527958718 0.59417433318445722623 0.45039029557155030314 1.3043183846718853225 -0.016182346839027045987 -0.16543913132348661565 0.75833704970999538109 0.01945627225435693497 0.39195870129208953969 -0.43483309963321609137 -0.80015000226274235473 -0.73453707854478400563 0.20692659980171057565 0.19650164408494580348 -0.79610550520721545809 1.5308577346821321541 1.2093321810309689557 0.68864702265570665318 0.36730269065709442167 1.0837522089630899913 -0.20129774155773288991 0.43783014629203942381 -0.21392733921592541058 -0.0086702380842017152951 0.33815436613015525946 -0.51686357340000743665 0.79961483485801099214 -1.0066600660120101907 -0.81013562599360389171 -0.74829275260756378252 0.25432546456619953279 0.49156668410208176345 -0.82989975476555999379 0.11752468808391541844 0.32609061262884436738 0.71119263904535823251 1.0975780628406412998 1.0810097923863164482 -0.023909551301027252845 -0.5443508377068133619 -0.46573321188768979084 -0.052741199866618133918 0.43348218706020469337 0.16064758786711233474 0.26650786504389295528 0.82889815508212938422 0.22604361879179743489 0.58887871260754875991 0.26153750486647803219 0.074875279821584844742 0.5177627899782033527 0.84928269526435085091 0.35607319624341488007 -0.23064517956364150031 -0.090322667365179340471 0.55454692940513194976 0.065080143413510968542 -1.119919175791817878 0.97724786225457882516 0.60779943055406160379 0.88893520985405771739 -0.092532682165247973072 0.19416176843822566256 0.85792889653574189168 0.32320263816334510176 -0.98002249366724236701 0.93939552363442946348 0.19327409043778404074 0.039725327051798688116 -0.84765448563933798454 1.0973572566714759891 -0.84701043051784685733 -0.18990410007721472696 0.077560011153682217877 0.82905893170741429277 0.79481077873178485049 0.087635780470118426755 -1.188244657221350975 -0.5494633030119357997 0.13261825874370608558 0.21155674198813095854 -0.45009109368496102999 0.32617017042152179895 0.19205910768006753675 -0.044730964074235532446 0.61202787562039973057 0.30817371373071034135 -0.060344409915988009296 0.0057139739177477447823 0.14415012441842661728 -0.45018879304562264831 0.8222247989505154786 0.58314625778629103348 -0.9554622120905731375 -0.66325647577358248785 0.82461368064683238099 0.21831102932729912203 -0.2305662642359411485 0.25615775795229905887 0.93660928616362149057 -0.56446280067970455718 -0.70192209169863484242 0.42121791885756337814 0.84529705244293784627 0.7686529664972082676 -0.49548385982462217481 0.685183295969938988 0.4238060382125855563 0.83939244961851955384 0.45803013978415924035 -0.44279579955354381182 0.7611174140072851646 -0.19028988463690454935 -0.048476073552941159606 -0.22174210666650334689 -0.44783307770974911666 0.208467083305520412 0.91140926595787863373 0.31924339113537886226 0.44111909173498797809;-0.55397270853651869871 0.89409514392620781376 0.4421328699090442127 0.39975310192701135614 0.48602990101322679495 0.25895453255617495447 -0.6810534528482585781 0.94817219053566115239 -1.0197299618729251947 0.64670270809716601246 -0.5721896108402750869 -0.32724419170530255618 0.75896175836710244589 0.17902434378533552128 0.84103939294549756589 -0.60960931444594557149 -0.36653480618077560749 0.82888482992475287503 -0.51179411118954165616 -0.81814157884798588416 -0.49655925740269035717 -0.65499315488236609095 0.5632119088403214624 0.23726932436169845264 -0.61242328410897683977 0.83957201223657174083 -0.20250697968433689633 0.94121559820476186076 0.051171689638141518164 0.69253978495241752533 -0.099718627740089521572 -0.70955560266577899498 0.036825910370702742702 0.095536154853708116219 -0.33961447766918517743 0.20648430329284708784 -0.061839544346469467462 0.71011604845520348572 0.66764316090925612812 0.23583028522195062515 -0.36172580727057224159 0.016910842609136358256 0.27102670414459772985 -1.2426953812305494562 -0.43205036377366884404 0.47474758201230082832 0.28706040502133961523 -0.40301939865410374431 -0.59524674151077583417 -0.87887103228841079172 -0.21906698000489407963 0.28471452303943900475 -0.38774450352379619122 -0.037990225228729440632 -0.91192995806372678658 0.36279789410942941963 -0.43686469173997233284 -0.25286738553444088051 -0.79235574253349916329 0.66187132445107266232 0.33097242802245030457 0.64748396565610999431 0.41852909586923442431 -0.25510255879707421922 -0.67092244610910412028 0.54984891368833055392 -1.1581589633029500952 -0.553498247736766813 1.5153205935745812649 0.5729095132785223532 -0.58946945715750109773 -0.56809013588601742217 1.2315519896640017006 -0.21049387058289631414 0.27888686257402539592 0.84073748951487969894 -0.36552788989803952635 -0.31945598992374485414 0.75851023279325135995 -0.99727808309129795106 0.0019227162294998315605 0.26524696173089079565 -0.41423541147654757699 -0.8909783566131240784 0.10470327007303734113 -0.85697623024149116588 0.16783210343647639307 -0.14796355293465876524 -0.23698099984256162931 -0.49754391590110497168 0.47794076454926653907 -0.207685122343528622 -0.48635268857807456566 0.60291370314807890551 -0.15291026260865833719 0.13999559782496182048 -0.20684862680672866375 -0.20578457321098686528 -0.19546231326590257638 0.83401204934890960097 -0.62129819894621152176 0.7027864647236634621 0.1366516824472637226 0.71398395894231025949 -0.076791265926083276949 0.56486902090770108043 0.30845448839393596607 -0.5183705304773276179 -0.62934855857891403019 -0.62314254775934718733 -0.10114535768967637674 -0.24510435011138076433 0.73400437158571574248 -0.74588389135199972824 -1.0606089642516485227 0.9075622966489548249 -0.60094563974100423387 -0.55598306219545512441 0.34116123704338985334 -0.44404354134827561662 1.3825169155039342961 0.57868297253447442685 0.11259335517486063205 -0.58136071151964052728 -0.63052319959296931895 0.51595918790941808219 0.019774684614702910807 -0.045427226464026020103 -1.2393590146008239827 -0.59605851371159046526 0.29113671550198583216 -0.79847141715942759888 0.15550448046562628801 0.3990920450792956875 -0.14879502717172687909 0.79522524314364628761 0.14494063247915872639 0.70596600120501218356 0.1372349460632871776 -1.0447385262559214514 -0.59490580830181605254 -0.048669835194881327922 -0.27177617821537353171 0.46971155087630306335 -0.42695478633669847746 -0.77068166156794559729 -0.22589873715117642083 -0.41120715382801814597 -1.1112459875955165156 -0.19629237515665359792 0.21982899034843536579 -0.41139251159283363179 -0.069704414478043250081 0.70171493435454002086 0.073522874925353406961 0.42995196282719244651 1.2771095836252193134 -0.83308425532312180284 -1.1252166241677659109 0.04525615157734094729 0.25095408547047681758 0.45895071959059580147 0.3552009176423793213 -0.65426002815028994064 0.36108884976211841344 0.27221898877278305484 0.6775683897291042701 0.1253603264502828607 0.1580534840764862281 -0.95108651076170003247 -0.5973384861095936138 -0.082374608249842162788 -0.57980093888314632178 0.8806649676153658346 -0.25848451485485118839 0.076194559062795166882 -1.3104021806530621319 0.60433092449628289522 -0.65960866075368185246 1.2485785637872659493 0.80432016879223000583 0.27317371737919937669 0.75589656724688025768 0.50546570966984472051 -0.27840065947691744475 0.25566894258056732658 -0.63052255617513031094 -0.1156026618810772344 -0.18563641996829668979 0.57094171833587015197 -0.7929055123992533316 -0.39602047423781217006 0.85710259971311519855 0.21373138244116920981 0.47528554513147602822 0.43502161099845026992 -0.63359546735636962378 0.064842635201930662325 0.2069011984565224116 -0.85851885982814446496;0.80691942759093382431 -1.0433412312350291984 0.69114174073370204798 0.70388944170201350747 1.1556929638797981408 0.29419834936266897607 -0.59711745865240362097 -0.96500614293838515856 -0.11766929100590120538 0.18955679298519406695 -0.15644942673649681053 0.750981248136437185 -1.1166618682632256654 0.30856411242471837308 -0.792882282518318382 -0.8228848759995985862 0.12665727159449757799 0.61995629519390127449 -0.25191861141469856777 0.89881660033589982906 0.62640387909856520832 0.34032350561784696641 0.4158303883376485155 0.42845253752085177279 0.98147358997606903852 -0.31377120058005281145 -0.21012540245846070275 0.33203154793735684125 -0.3099067806362885702 0.23940820456650813153 -0.57417918884893925924 1.1183860796120501657 -0.38613988273059701717 